{"learner":{"attributes":{},"feature_names":[],"feature_types":[],"gradient_booster":{"model":{"gbtree_model_param":{"num_parallel_tree":"1","num_trees":"900"},"iteration_indptr":[0,1,2,3,4,5,6,7,8,9,10,11,12,13,14,15,16,17,18,19,20,21,22,23,24,25,26,27,28,29,30,31,32,33,34,35,36,37,38,39,40,41,42,43,44,45,46,47,48,49,50,51,52,53,54,55,56,57,58,59,60,61,62,63,64,65,66,67,68,69,70,71,72,73,74,75,76,77,78,79,80,81,82,83,84,85,86,87,88,89,90,91,92,93,94,95,96,97,98,99,100,101,102,103,104,105,106,107,108,109,110,111,112,113,114,115,116,117,118,119,120,121,122,123,124,125,126,127,128,129,130,131,132,133,134,135,136,137,138,139,140,141,142,143,144,145,146,147,148,149,150,151,152,153,154,155,156,157,158,159,160,161,162,163,164,165,166,167,168,169,170,171,172,173,174,175,176,177,178,179,180,181,182,183,184,185,186,187,188,189,190,191,192,193,194,195,196,197,198,199,200,201,202,203,204,205,206,207,208,209,210,211,212,213,214,215,216,217,218,219,220,221,222,223,224,225,226,227,228,229,230,231,232,233,234,235,236,237,238,239,240,241,242,243,244,245,246,247,248,249,250,251,252,253,254,255,256,257,258,259,260,261,262,263,264,265,266,267,268,269,270,271,272,273,274,275,276,277,278,279,280,281,282,283,284,285,286,287,288,289,290,291,292,293,294,295,296,297,298,299,300,301,302,303,304,305,306,307,308,309,310,311,312,313,314,315,316,317,318,319,320,321,322,323,324,325,326,327,328,329,330,331,332,333,334,335,336,337,338,339,340,341,342,343,344,345,346,347,348,349,350,351,352,353,354,355,356,357,358,359,360,361,362,363,364,365,366,367,368,369,370,371,372,373,374,375,376,377,378,379,380,381,382,383,384,385,386,387,388,389,390,391,392,393,394,395,396,397,398,399,400,401,402,403,404,405,406,407,408,409,410,411,412,413,414,415,416,417,418,419,420,421,422,423,424,425,426,427,428,429,430,431,432,433,434,435,436,437,438,439,440,441,442,443,444,445,446,447,448,449,450,451,452,453,454,455,456,457,458,459,460,461,462,463,464,465,466,467,468,469,470,471,472,473,474,475,476,477,478,479,480,481,482,483,484,485,486,487,488,489,490,491,492,493,494,495,496,497,498,499,500,501,502,503,504,505,506,507,508,509,510,511,512,513,514,515,516,517,518,519,520,521,522,523,524,525,526,527,528,529,530,531,532,533,534,535,536,537,538,539,540,541,542,543,544,545,546,547,548,549,550,551,552,553,554,555,556,557,558,559,560,561,562,563,564,565,566,567,568,569,570,571,572,573,574,575,576,577,578,579,580,581,582,583,584,585,586,587,588,589,590,591,592,593,594,595,596,597,598,599,600,601,602,603,604,605,606,607,608,609,610,611,612,613,614,615,616,617,618,619,620,621,622,623,624,625,626,627,628,629,630,631,632,633,634,635,636,637,638,639,640,641,642,643,644,645,646,647,648,649,650,651,652,653,654,655,656,657,658,659,660,661,662,663,664,665,666,667,668,669,670,671,672,673,674,675,676,677,678,679,680,681,682,683,684,685,686,687,688,689,690,691,692,693,694,695,696,697,698,699,700,701,702,703,704,705,706,707,708,709,710,711,712,713,714,715,716,717,718,719,720,721,722,723,724,725,726,727,728,729,730,731,732,733,734,735,736,737,738,739,740,741,742,743,744,745,746,747,748,749,750,751,752,753,754,755,756,757,758,759,760,761,762,763,764,765,766,767,768,769,770,771,772,773,774,775,776,777,778,779,780,781,782,783,784,785,786,787,788,789,790,791,792,793,794,795,796,797,798,799,800,801,802,803,804,805,806,807,808,809,810,811,812,813,814,815,816,817,818,819,820,821,822,823,824,825,826,827,828,829,830,831,832,833,834,835,836,837,838,839,840,841,842,843,844,845,846,847,848,849,850,851,852,853,854,855,856,857,858,859,860,861,862,863,864,865,866,867,868,869,870,871,872,873,874,875,876,877,878,879,880,881,882,883,884,885,886,887,888,889,890,891,892,893,894,895,896,897,898,899,900],"tree_info":[0,0,0,0,0,0,0,0,0,0,0,0,0,0,0,0,0,0,0,0,0,0,0,0,0,0,0,0,0,0,0,0,0,0,0,0,0,0,0,0,0,0,0,0,0,0,0,0,0,0,0,0,0,0,0,0,0,0,0,0,0,0,0,0,0,0,0,0,0,0,0,0,0,0,0,0,0,0,0,0,0,0,0,0,0,0,0,0,0,0,0,0,0,0,0,0,0,0,0,0,0,0,0,0,0,0,0,0,0,0,0,0,0,0,0,0,0,0,0,0,0,0,0,0,0,0,0,0,0,0,0,0,0,0,0,0,0,0,0,0,0,0,0,0,0,0,0,0,0,0,0,0,0,0,0,0,0,0,0,0,0,0,0,0,0,0,0,0,0,0,0,0,0,0,0,0,0,0,0,0,0,0,0,0,0,0,0,0,0,0,0,0,0,0,0,0,0,0,0,0,0,0,0,0,0,0,0,0,0,0,0,0,0,0,0,0,0,0,0,0,0,0,0,0,0,0,0,0,0,0,0,0,0,0,0,0,0,0,0,0,0,0,0,0,0,0,0,0,0,0,0,0,0,0,0,0,0,0,0,0,0,0,0,0,0,0,0,0,0,0,0,0,0,0,0,0,0,0,0,0,0,0,0,0,0,0,0,0,0,0,0,0,0,0,0,0,0,0,0,0,0,0,0,0,0,0,0,0,0,0,0,0,0,0,0,0,0,0,0,0,0,0,0,0,0,0,0,0,0,0,0,0,0,0,0,0,0,0,0,0,0,0,0,0,0,0,0,0,0,0,0,0,0,0,0,0,0,0,0,0,0,0,0,0,0,0,0,0,0,0,0,0,0,0,0,0,0,0,0,0,0,0,0,0,0,0,0,0,0,0,0,0,0,0,0,0,0,0,0,0,0,0,0,0,0,0,0,0,0,0,0,0,0,0,0,0,0,0,0,0,0,0,0,0,0,0,0,0,0,0,0,0,0,0,0,0,0,0,0,0,0,0,0,0,0,0,0,0,0,0,0,0,0,0,0,0,0,0,0,0,0,0,0,0,0,0,0,0,0,0,0,0,0,0,0,0,0,0,0,0,0,0,0,0,0,0,0,0,0,0,0,0,0,0,0,0,0,0,0,0,0,0,0,0,0,0,0,0,0,0,0,0,0,0,0,0,0,0,0,0,0,0,0,0,0,0,0,0,0,0,0,0,0,0,0,0,0,0,0,0,0,0,0,0,0,0,0,0,0,0,0,0,0,0,0,0,0,0,0,0,0,0,0,0,0,0,0,0,0,0,0,0,0,0,0,0,0,0,0,0,0,0,0,0,0,0,0,0,0,0,0,0,0,0,0,0,0,0,0,0,0,0,0,0,0,0,0,0,0,0,0,0,0,0,0,0,0,0,0,0,0,0,0,0,0,0,0,0,0,0,0,0,0,0,0,0,0,0,0,0,0,0,0,0,0,0,0,0,0,0,0,0,0,0,0,0,0,0,0,0,0,0,0,0,0,0,0,0,0,0,0,0,0,0,0,0,0,0,0,0,0,0,0,0,0,0,0,0,0,0,0,0,0,0,0,0,0,0,0,0,0,0,0,0,0,0,0,0,0,0,0,0,0,0,0,0,0,0,0,0,0,0,0,0,0,0,0,0,0,0,0,0,0,0,0,0,0,0,0,0,0,0,0,0,0,0,0,0,0,0,0,0,0,0,0,0,0,0,0,0,0,0,0,0,0,0,0,0,0,0,0,0,0,0,0,0,0,0,0,0,0,0,0,0,0,0,0,0,0,0,0,0,0,0,0,0,0,0,0,0,0,0,0,0,0,0,0,0,0,0,0,0,0,0,0,0,0,0,0,0,0,0,0,0,0,0,0,0,0,0,0,0,0,0,0,0,0,0,0,0,0,0,0,0,0,0,0,0,0,0,0,0,0,0,0,0,0,0,0,0,0,0,0,0,0,0,0,0,0,0,0,0,0,0,0,0,0,0,0,0,0,0,0,0,0,0,0,0,0,0,0,0,0,0,0,0,0,0,0,0],"trees":[{"base_weights":[7.250109E0,7.6014893E3,-2.062608E3,5.0499385E3,2.0534373E4,1.3677272E2,-4.3541587E3,1.2745555E4,3.1030996E3,4.8770605E2,2.2626598E4,-1.0310795E3,3.957046E3,-6.1122173E3,-3.0330986E3,1.183091E4,5.7055337E3,2.703839E3,2.8071877E4,4.3106296E2,-2.0400419E3,2.841611E4,1.3796244E4,-3.9134062E3,-4.7872055E2,7.1721426E3,1.9581698E3,-5.182626E3,-6.420458E3,-3.220315E3,1.4426844E4,1.9366582E4,9.808268E3,3.114379E3,-9.9716296E2,2.973032E3,7.120324E2,-2.6825754E2,2.0730078E2,3.1884023E4,1.8837236E4,9.733404E3,1.8007818E4,-9.1608986E1,-4.108281E3,-6.07146E2,9.613593E2,6.382798E3,1.722895E3,1.2797258E3,7.5065594E2,-5.246994E3,2.9053354E2,-6.449561E3,-2.7729298E1,-3.399694E3,5.0028013E3,1.4489065E3,4.7803238E2,4.0978237E3,2.3673955E4,8.971129E3,3.3608455E3,2.2751885E3,4.6010547E3,8.887368E1,-1.6435876E3,5.714707E2,-4.8346466E1,3.3325633E4,8.078176E2,1.9390486E4,5.0533535E1,6.853815E3,1.9585319E3,1.8642861E4,-6.9346466E1,2.8043223E3,-2.1006392E3,-4.209413E3,2.3503238E2,-6.8015137E2,1.4736571E3,6.005162E3,1.8420955E3,1.0758326E3,1.3695955E3,-5.3010527E3,2.1553355E2,-6.478978E3,-1.8665349E3,-3.448147E2,4.5553357E2,-2.5800654E3,-4.589295E3,4.891739E2,2.2757507E3,-5.808206E2,8.1906343E3,2.8262498E4,3.9895884E3,8.243195E3,2.4760327E3,2.464745E3,-2.2457391E2,8.498597E3,3.9205964E3,1.7023238E2,-2.3929533E2,-1.6712968E3,-9.346465E0,8.934531E1,-3.3346466E1,3.4647168E4,7.5065704E2,1.9920621E4,1.0453355E2,7.0728823E3,-2.4346464E1,1.9526621E4,2.423453E2,-7.8346466E1,3.7073008E3,-2.8192844E2,2.1553355E2,-4.2789966E3,3.9553354E2,-3.3515323E2,-3.934245E3,1.103333E4,5.1810107E3,8.923071E2,1.2210953E3,-5.3468496E3,1.5553354E2,-6.5042134E3,-2.0655957E2,6.553354E1,-2.5420325E3,-2.6278572E3,6.2259534E2,-4.6801973E3,2.4724615E2,2.4065709E2,-3.3464649E0,1.00032364E2,-2.1656471E2,9.190324E2,-5.7346466E1,3.029796E3,1.0600316E3,4.6565707E2,1.9595303E1,6.975557E2,2.0333455E3,2.3807172E2,-1.9986476E2,1.034231E3,7.621884E1,4.1720267E2,1.308249E2,-5.702447E1,2.2084806E1,-1.5416443E2,-3.2064697E1,3.2776626E3,1.202813E3,1.8438585E3,1.0453355E2,7.3255096E2,3.3046884E2,1.8065552E3,1.1053354E2,3.7903238E2,3.5533535E1,-3.9004904E2,2.8153354E2,-4.334587E1,5.273758E2,-1.8298907E2,-3.9063504E2,1.0593137E3,-1.7734647E2,4.2901736E2,1.2861571E3,2.4824219E2,-1.3658423E1,-4.845849E2,9.553354E1,-2.3601706E2,-5.8791266E2,-2.5449564E2,-3.3346466E1,-2.4156697E2,2.5331296E2,-4.2430197E2,3.3553354E2],"categories":[],"categories_nodes":[],"categories_segments":[],"categories_sizes":[],"default_left":[0,0,0,0,0,0,0,0,0,0,0,0,0,0,0,0,0,0,0,0,0,0,0,0,0,0,0,0,0,0,0,0,0,0,0,0,0,0,0,0,0,0,0,0,0,0,0,0,0,0,0,0,0,0,0,0,0,0,0,0,0,0,0,0,0,0,0,0,0,0,0,0,0,0,0,0,0,0,0,0,0,0,0,0,0,0,0,0,0,0,0,0,0,0,0,0,0,0,0,0,0,0,0,0,0,0,0,0,0,0,0,0,0,0,0,0,0,0,0,0,0,0,0,0,0,0,0,0,0,0,0,0,0,0,0,0,0,0,0,0,0,0,0,0,0,0,0,0,0,0,0,0,0,0,0,0,0,0,0,0,0,0,0,0,0,0,0,0,0,0,0,0,0,0,0,0,0,0,0,0,0,0,0,0,0,0,0,0,0,0,0,0,0,0,0,0,0],"id":0,"left_children":[1,3,5,7,9,11,13,15,17,19,21,23,25,27,29,31,-1,33,35,-1,37,39,41,43,45,47,49,51,53,55,57,59,61,63,65,-1,-1,-1,67,69,71,73,75,77,79,81,-1,83,-1,85,-1,87,-1,89,91,93,95,-1,-1,97,99,101,-1,103,105,107,109,111,-1,113,-1,115,-1,117,-1,119,-1,121,123,125,-1,127,-1,129,-1,131,-1,133,-1,135,137,-1,-1,139,141,-1,143,145,147,149,151,153,-1,155,-1,157,159,-1,161,163,-1,-1,-1,165,-1,167,-1,169,-1,171,-1,-1,173,-1,-1,175,-1,177,179,181,183,185,-1,187,-1,189,-1,-1,191,193,-1,195,-1,-1,-1,-1,-1,-1,-1,-1,-1,-1,-1,-1,-1,-1,-1,-1,-1,-1,-1,-1,-1,-1,-1,-1,-1,-1,-1,-1,-1,-1,-1,-1,-1,-1,-1,-1,-1,-1,-1,-1,-1,-1,-1,-1,-1,-1,-1,-1,-1,-1,-1,-1,-1,-1,-1],"loss_changes":[8.4913955E10,3.79723E10,2.1395964E10,1.4438543E10,7.946887E9,9.680728E9,4.791382E9,7.53339E9,7.5841147E9,2.370289E8,8.0090726E9,2.6422794E9,3.2365957E9,1.8844672E8,3.9860173E9,2.576978E9,0E0,1.1700823E9,6.7761254E8,0E0,3.0835144E7,2.1869937E9,8.813783E8,1.9809254E8,2.0152584E9,1.5887483E9,1.3469564E9,1.5948186E8,1.2242125E8,1.7745787E9,2.7084544E7,2.3708836E9,2.9487667E9,8.398966E8,5.505445E7,0E0,0E0,0E0,2.2407485E6,1.7794499E9,3.0174003E8,1.1217157E9,4.2229043E8,9.905053E7,1.9460275E8,1.7367642E9,0E0,7.381325E8,0E0,7.856805E8,0E0,1.2082278E8,0E0,6.4374784E7,1.3556666E8,1.1034399E9,5.90912E6,0E0,0E0,2.2016664E8,2.484099E9,1.6382659E9,0E0,4.147008E8,5.884083E8,1.9246798E7,1.739888E6,2.7209692E6,0E0,1.6342057E9,0E0,2.5326182E8,0E0,6.0025856E7,0E0,3.4587136E8,0E0,2.96883E7,6.1393756E7,1.878871E8,0E0,1.5454971E9,0E0,6.4398746E8,0E0,6.31436E8,0E0,9.252864E7,0E0,3.89632E7,1.5974518E7,0E0,0E0,3.490985E8,3.384965E8,0E0,6.651468E6,2.6975994E7,1.2006979E8,1.3440287E9,3.3474728E7,7.24097E8,0E0,3.7455846E8,0E0,7.820298E8,3.6397875E8,0E0,5.662951E6,1.403752E6,0E0,0E0,0E0,1.40143E9,0E0,2.7128627E8,0E0,6.716198E7,0E0,2.5049805E8,0E0,0E0,6.685592E6,0E0,0E0,1.2874496E8,0E0,1.1389128E9,8.42537E7,2.76362E8,4.711337E8,5.541216E8,0E0,6.636339E7,0E0,3.6419584E7,0E0,0E0,1.620536E6,2.2531328E8,0E0,1.6885453E8,0E0,0E0,0E0,0E0,0E0,0E0,0E0,0E0,0E0,0E0,0E0,0E0,0E0,0E0,0E0,0E0,0E0,0E0,0E0,0E0,0E0,0E0,0E0,0E0,0E0,0E0,0E0,0E0,0E0,0E0,0E0,0E0,0E0,0E0,0E0,0E0,0E0,0E0,0E0,0E0,0E0,0E0,0E0,0E0,0E0,0E0,0E0,0E0,0E0,0E0,0E0,0E0,0E0,0E0,0E0],"parents":[2147483647,0,0,1,1,2,2,3,3,4,4,5,5,6,6,7,7,8,8,9,9,10,10,11,11,12,12,13,13,14,14,15,15,17,17,18,18,20,20,21,21,22,22,23,23,24,24,25,25,26,26,27,27,28,28,29,29,30,30,31,31,32,32,33,33,34,34,38,38,39,39,40,40,41,41,42,42,43,43,44,44,45,45,47,47,49,49,51,51,53,53,54,54,55,55,56,56,59,59,60,60,61,61,63,63,64,64,65,65,66,66,67,67,69,69,71,71,73,73,75,75,77,77,78,78,79,79,81,81,83,83,85,85,87,87,89,89,90,90,93,93,94,94,96,96,97,97,98,98,99,99,100,100,101,101,103,103,105,105,106,106,108,108,109,109,113,113,115,115,117,117,119,119,122,122,125,125,127,127,128,128,129,129,130,130,131,131,133,133,135,135,138,138,139,139,141,141],"right_children":[2,4,6,8,10,12,14,16,18,20,22,24,26,28,30,32,-1,34,36,-1,38,40,42,44,46,48,50,52,54,56,58,60,62,64,66,-1,-1,-1,68,70,72,74,76,78,80,82,-1,84,-1,86,-1,88,-1,90,92,94,96,-1,-1,98,100,102,-1,104,106,108,110,112,-1,114,-1,116,-1,118,-1,120,-1,122,124,126,-1,128,-1,130,-1,132,-1,134,-1,136,138,-1,-1,140,142,-1,144,146,148,150,152,154,-1,156,-1,158,160,-1,162,164,-1,-1,-1,166,-1,168,-1,170,-1,172,-1,-1,174,-1,-1,176,-1,178,180,182,184,186,-1,188,-1,190,-1,-1,192,194,-1,196,-1,-1,-1,-1,-1,-1,-1,-1,-1,-1,-1,-1,-1,-1,-1,-1,-1,-1,-1,-1,-1,-1,-1,-1,-1,-1,-1,-1,-1,-1,-1,-1,-1,-1,-1,-1,-1,-1,-1,-1,-1,-1,-1,-1,-1,-1,-1,-1,-1,-1,-1,-1,-1,-1,-1],"split_conditions":[-7.629142E-1,1E0,3.242067E-1,-1.3549472E0,3E0,1E0,3E0,1E0,1E0,2E0,-8.945043E-1,3E0,-2.1935374E-1,8.6776716E-1,1E0,1E0,5.7055337E3,1E0,-9.44101E-1,4.3106296E2,1E0,-1.1252878E0,1E0,1E0,1E0,1E0,1E0,1E0,1E0,1E0,1.048954E0,3E0,1E0,1E0,-1.1252878E0,2.973032E3,7.120324E2,-2.6825754E2,1E0,1E0,1E0,1E0,1E0,-2.3344395E-1,1E0,1E0,9.613593E2,1E0,1.722895E3,1E0,7.5065594E2,1E0,2.9053354E2,4.853877E0,1.6894063E-1,8.6776716E-1,6.8658036E-1,1.4489065E3,4.7803238E2,-1.9435784E0,-1.3064747E0,1E0,3.3608455E3,1E0,1E0,-1.6688483E0,1E0,-1.8429823E0,-4.8346466E1,1E0,8.078176E2,1E0,5.0533535E1,1E0,1.9585319E3,1E0,-6.9346466E1,-1.3256307E0,1E0,1E0,2.3503238E2,1E0,1.4736571E3,-1.0094713E0,1.8420955E3,1E0,1.3695955E3,1E0,2.1553355E2,1E0,5.7598114E0,-3.448147E2,4.5553357E2,1E0,1E0,4.891739E2,1.2323856E0,1E0,-1.4876615E0,1E0,1E0,1E0,2.4760327E3,1E0,-2.2457391E2,1E0,-1.6158956E-1,1.7023238E2,1E0,1E0,-9.346465E0,8.934531E1,-3.3346466E1,-1.0382131E0,7.5065704E2,1E0,1.0453355E2,-3.6131795E-2,-2.4346464E1,1E0,2.423453E2,-7.8346466E1,-2.1935374E-1,-2.8192844E2,2.1553355E2,1E0,3.9553354E2,1E0,-4.0054056E-1,1E0,1E0,-3.8166914E-2,1.2210953E3,1E0,1.5553354E2,1E0,-2.0655957E2,6.553354E1,1E0,1E0,6.2259534E2,1E0,2.4724615E2,2.4065709E2,-3.3464649E0,1.00032364E2,-2.1656471E2,9.190324E2,-5.7346466E1,3.029796E3,1.0600316E3,4.6565707E2,1.9595303E1,6.975557E2,2.0333455E3,2.3807172E2,-1.9986476E2,1.034231E3,7.621884E1,4.1720267E2,1.308249E2,-5.702447E1,2.2084806E1,-1.5416443E2,-3.2064697E1,3.2776626E3,1.202813E3,1.8438585E3,1.0453355E2,7.3255096E2,3.3046884E2,1.8065552E3,1.1053354E2,3.7903238E2,3.5533535E1,-3.9004904E2,2.8153354E2,-4.334587E1,5.273758E2,-1.8298907E2,-3.9063504E2,1.0593137E3,-1.7734647E2,4.2901736E2,1.2861571E3,2.4824219E2,-1.3658423E1,-4.845849E2,9.553354E1,-2.3601706E2,-5.8791266E2,-2.5449564E2,-3.3346466E1,-2.4156697E2,2.5331296E2,-4.2430197E2,3.3553354E2],"split_indices":[1,559,1,0,583,559,583,442,346,583,0,583,1,1,317,560,0,135,1,0,567,1,567,583,214,486,214,37,27,214,1,583,352,567,1,0,0,0,414,495,146,212,199,0,558,486,0,317,0,318,0,214,0,1,0,1,1,0,0,0,1,44,0,99,560,1,579,0,0,239,0,201,0,436,0,239,0,0,349,354,0,555,0,0,0,317,0,485,0,360,1,0,0,131,223,0,0,521,1,555,555,346,0,192,0,555,0,0,567,555,0,0,0,0,0,239,0,0,0,182,0,0,1,0,0,140,0,349,1,513,212,1,0,354,0,583,0,0,567,488,0,283,0,0,0,0,0,0,0,0,0,0,0,0,0,0,0,0,0,0,0,0,0,0,0,0,0,0,0,0,0,0,0,0,0,0,0,0,0,0,0,0,0,0,0,0,0,0,0,0,0,0,0,0,0,0,0],"split_type":[0,0,0,0,0,0,0,0,0,0,0,0,0,0,0,0,0,0,0,0,0,0,0,0,0,0,0,0,0,0,0,0,0,0,0,0,0,0,0,0,0,0,0,0,0,0,0,0,0,0,0,0,0,0,0,0,0,0,0,0,0,0,0,0,0,0,0,0,0,0,0,0,0,0,0,0,0,0,0,0,0,0,0,0,0,0,0,0,0,0,0,0,0,0,0,0,0,0,0,0,0,0,0,0,0,0,0,0,0,0,0,0,0,0,0,0,0,0,0,0,0,0,0,0,0,0,0,0,0,0,0,0,0,0,0,0,0,0,0,0,0,0,0,0,0,0,0,0,0,0,0,0,0,0,0,0,0,0,0,0,0,0,0,0,0,0,0,0,0,0,0,0,0,0,0,0,0,0,0,0,0,0,0,0,0,0,0,0,0,0,0,0,0,0,0,0,0],"sum_hessian":[5.398E3,1.155E3,4.243E3,9.67E2,1.88E2,2.166E3,2.077E3,1.93E2,7.74E2,1.8E1,1.7E2,1.66E3,5.06E2,8.88E2,1.189E3,1.92E2,1E0,7.64E2,1E1,6E0,1.2E1,1E2,7E1,2.65E2,1.395E3,1.92E2,3.14E2,2.3E2,6.58E2,1.178E3,1.1E1,3.7E1,1.55E2,6.88E2,7.6E1,7E0,3E0,8E0,4E0,7E1,3E1,3.9E1,3.1E1,1.3E1,2.52E2,1.381E3,1.4E1,1.83E2,9E0,2.86E2,2.8E1,2.29E2,1E0,6.55E2,3E0,1.154E3,2.4E1,8E0,3E0,9E0,2.8E1,1.53E2,2E0,4.43E2,2.45E2,2.9E1,4.7E1,3E0,1E0,6.5E1,5E0,2.9E1,1E0,3.4E1,5E0,3E1,1E0,5E0,8E0,2.49E2,3E0,1.377E3,4E0,1.81E2,2E0,2.84E2,2E0,2.28E2,1E0,6.5E2,5E0,2E0,1E0,6.87E2,4.67E2,1.9E1,5E0,5E0,4E0,2.2E1,6E0,1.5E2,3E0,4.27E2,1.6E1,3.3E1,2.12E2,3E0,2.6E1,4.6E1,1E0,2E0,1E0,6.1E1,4E0,2.8E1,1E0,3.3E1,1E0,2.8E1,2E0,1E0,4E0,7E0,1E0,2.48E2,1E0,1.247E3,1.3E2,2.2E1,1.59E2,2.82E2,2E0,2.27E2,1E0,6.45E2,5E0,1E0,4E0,6.85E2,2E0,4.62E2,5E0,4E0,1E0,3E0,2E0,3E0,1E0,1.5E1,7E0,4E0,2E0,1.48E2,2E0,4.12E2,1.5E1,2.3E1,1E1,1.63E2,4.9E1,1.4E1,1.2E1,4.4E1,2E0,5.5E1,6E0,2.7E1,1E0,2.3E1,1E1,2.7E1,1E0,3E0,1E0,2.47E2,1E0,1.22E3,2.7E1,2.5E1,1.05E2,2.1E1,1E0,1.55E2,4E0,1E2,1.82E2,2.26E2,1E0,6E0,6.39E2,3E0,1E0,6.79E2,6E0,4.61E2,1E0],"tree_param":{"num_deleted":"0","num_feature":"584","num_nodes":"197","size_leaf_vector":"1"}},{"base_weights":[1.3747793E0,4.6456533E3,-2.761077E3,2.893929E3,1.2228944E4,-5.2991113E3,-1.5620962E3,1.0180683E4,1.8525618E3,1.963019E4,7.4321543E3,-4.328074E3,-5.8489243E3,-1.7807168E3,6.772015E3,1.2639401E4,1.5094944E3,1.6064705E3,2.5246598E4,6.640101E2,2.239194E4,6.7737773E3,2.1977925E3,-4.3889624E3,3.5729633E2,-5.864409E3,-2.3731787E2,-1.8913829E3,1.4066422E4,7.90891E3,3.829751E2,1.190121E4,3.2096077E3,3.150423E3,-2.166041E3,1.206029E3,7.520557E3,2.8503484E3,7.970349E2,5.2100415E3,-1.8489413E3,2.0428025E4,4.5957456E3,6.145114E3,1.7381052E3,-4.4232534E3,2.8181754E2,-5.8890615E3,-1.7620632E3,-4.5709072E1,1.7170929E1,-1.1038185E3,-3.8802224E3,1.5852423E4,5.2247516E2,7.22633E2,1.00013855E2,1.9079041E4,1.0006463E4,1.2090557E2,4.588722E3,-2.4934338E1,-2.0294107E2,2.332383E3,-2.3915463E2,1.18787705E4,3.9475076E3,5.6054333E2,9.6947495E1,1.2712083E2,-2.568149E3,2.1301045E4,-3.7431836E2,5.6408506E3,1.327155E3,-4.466274E3,1.8809631E2,-2.2340726E2,-5.916746E3,6.356754E1,-2.4092268E3,-1.1587462E3,1.5400752E3,-3.9972627E3,3.5389521E3,1.4890216E3,2.4706636E2,3.3241921E3,2.4269842E4,8.90475E3,2.6825952E3,1.2471611E3,-2.732625E2,6.0475464E3,9.7531903E2,2.2366238E3,1.4307278E3,-4.142887E2,7.491357E2,-2.2247068E3,1.3569474E4,-2.9628186E2,4.8290684E3,-5.94766E1,-2.5151344E2,2.5002084E4,1.4488663E4,7.561552E1,-1.0769253E2,5.316146E3,1.788024E3,-4.500216E3,2.7223502E2,-5.9362725E3,-1.5638936E2,-2.4075287E2,-3.2346066E1,-1.2097003E3,1.4186273E3,-4.0283865E3,4.682626E2,4.318784E2,1.6799886E2,-5.056344E1,6.6917944E2,2.2710671E3,9.163966E1,7.517121E2,1.9418448E3,2.094782E2,-8.81912E1,8.4352167E2,1.2406579E2,-1.8157793E1,1.7982704E2,3.195518E2,1.3327327E2,-2.4866443E2,-1.2741698E0,-2.4524533E2,8.235001E0,1.298913E3,-4.944149E1,1.9323781E2,-2.0756084E2,4.996934E2,1.682285E1,2.3187876E3,3.6223865E2,1.4073358E3,1.2857127E2,5.126446E2,-3.437604E1,-4.1778528E2,-1.8973447E2,-5.372699E2,-2.7790768E2,-8.567251E1,-3.7705792E2,-3.1812808E2,-4.2624033E2],"categories":[],"categories_nodes":[],"categories_segments":[],"categories_sizes":[],"default_left":[0,0,0,0,0,0,0,0,0,0,0,0,0,0,0,0,0,0,0,0,0,0,0,0,0,0,0,0,0,0,0,0,0,0,0,0,0,0,0,0,0,0,0,0,0,0,0,0,0,0,0,0,0,0,0,0,0,0,0,0,0,0,0,0,0,0,0,0,0,0,0,0,0,0,0,0,0,0,0,0,0,0,0,0,0,0,0,0,0,0,0,0,0,0,0,0,0,0,0,0,0,0,0,0,0,0,0,0,0,0,0,0,0,0,0,0,0,0,0,0,0,0,0,0,0,0,0,0,0,0,0,0,0,0,0,0,0,0,0,0,0,0,0,0,0,0,0,0,0,0,0,0,0,0,0,0,0,0,0,0,0],"id":1,"left_children":[1,3,5,7,9,11,13,15,17,19,21,23,25,27,29,31,33,35,37,39,41,43,-1,45,-1,47,49,51,53,55,-1,57,-1,59,61,63,65,-1,-1,67,69,71,-1,73,-1,75,-1,77,79,-1,-1,81,83,85,-1,-1,-1,87,89,91,93,-1,-1,95,97,99,101,-1,-1,-1,103,105,107,109,-1,111,-1,-1,113,-1,115,117,-1,119,121,-1,-1,123,125,127,-1,129,-1,131,133,135,-1,137,-1,139,141,143,145,-1,-1,147,149,-1,-1,151,-1,153,-1,155,-1,-1,-1,157,-1,159,-1,-1,-1,-1,-1,-1,-1,-1,-1,-1,-1,-1,-1,-1,-1,-1,-1,-1,-1,-1,-1,-1,-1,-1,-1,-1,-1,-1,-1,-1,-1,-1,-1,-1,-1,-1,-1,-1,-1,-1,-1],"loss_changes":[7.01394E10,2.7014926E10,1.041502E10,1.2551055E10,1.3270004E10,5.3609677E8,4.271209E9,4.3750564E9,8.2896097E9,7.77481E9,2.297433E9,2.3947622E8,5.768192E7,4.0394404E9,1.0434202E8,1.8872996E9,3.0315187E8,3.3944845E9,1.01836186E9,2.5917592E8,5.2337705E9,1.5676877E9,0E0,1.3162803E8,0E0,4.941824E7,6.577431E5,3.5297838E9,5.1971584E7,1.4041088E7,0E0,1.7805435E9,0E0,1.4703098E8,1.431192E6,2.2018898E9,1.3232471E9,0E0,0E0,2.02324E7,4.2441388E7,2.2860964E9,0E0,7.9211776E8,0E0,1.313152E8,0E0,3.5590144E7,1.4588778E7,0E0,0E0,1.6615196E9,5.840333E8,1.8008832E7,0E0,0E0,0E0,2.3737784E9,2.3049114E9,5.379474E7,1.0942976E8,0E0,0E0,9.16043E8,8.976749E8,1.0141911E9,2.01152E8,0E0,0E0,0E0,1.914144E6,2.3009772E9,9.00182E6,7.680051E8,0E0,1.2893235E8,0E0,0E0,3.500851E7,0E0,1.34024E6,1.4331592E9,0E0,2.226002E8,5.244304E6,0E0,0E0,1.6812734E8,4.6422016E8,5.214597E8,0E0,3.1030888E7,0E0,2.22525E8,1.1644581E7,7.412493E8,0E0,5.487407E8,0E0,7.455908E6,4.5447373E8,6.3925196E7,1.4560531E8,0E0,0E0,9.917358E8,6.602056E8,0E0,0E0,4.589568E8,0E0,1.1579238E8,0E0,2.7602944E7,0E0,0E0,0E0,1.2325793E9,0E0,1.8656154E8,0E0,0E0,0E0,0E0,0E0,0E0,0E0,0E0,0E0,0E0,0E0,0E0,0E0,0E0,0E0,0E0,0E0,0E0,0E0,0E0,0E0,0E0,0E0,0E0,0E0,0E0,0E0,0E0,0E0,0E0,0E0,0E0,0E0,0E0,0E0,0E0,0E0,0E0,0E0,0E0,0E0],"parents":[2147483647,0,0,1,1,2,2,3,3,4,4,5,5,6,6,7,7,8,8,9,9,10,10,11,11,12,12,13,13,14,14,15,15,16,16,17,17,18,18,19,19,20,20,21,21,23,23,25,25,26,26,27,27,28,28,29,29,31,31,33,33,34,34,35,35,36,36,39,39,40,40,41,41,43,43,45,45,47,47,48,48,51,51,52,52,53,53,57,57,58,58,59,59,60,60,63,63,64,64,65,65,66,66,70,70,71,71,72,72,73,73,75,75,78,78,80,80,81,81,83,83,84,84,87,87,88,88,89,89,91,91,93,93,94,94,95,95,97,97,99,99,100,100,101,101,102,102,105,105,106,106,109,109,111,111,113,113,117,117,119,119],"right_children":[2,4,6,8,10,12,14,16,18,20,22,24,26,28,30,32,34,36,38,40,42,44,-1,46,-1,48,50,52,54,56,-1,58,-1,60,62,64,66,-1,-1,68,70,72,-1,74,-1,76,-1,78,80,-1,-1,82,84,86,-1,-1,-1,88,90,92,94,-1,-1,96,98,100,102,-1,-1,-1,104,106,108,110,-1,112,-1,-1,114,-1,116,118,-1,120,122,-1,-1,124,126,128,-1,130,-1,132,134,136,-1,138,-1,140,142,144,146,-1,-1,148,150,-1,-1,152,-1,154,-1,156,-1,-1,-1,158,-1,160,-1,-1,-1,-1,-1,-1,-1,-1,-1,-1,-1,-1,-1,-1,-1,-1,-1,-1,-1,-1,-1,-1,-1,-1,-1,-1,-1,-1,-1,-1,-1,-1,-1,-1,-1,-1,-1,-1,-1,-1,-1],"split_conditions":[-2.1935374E-1,1E0,3E0,-1.3549472E0,-9.44101E-1,8.6776716E-1,1E0,-1.1252878E0,1E0,3E0,1E0,1E0,1E0,1E0,3.242067E-1,1E0,1E0,1E0,-9.44101E-1,2E0,1E0,1E0,2.1977925E3,1E0,3.5729633E2,4.853877E0,2.0230713E0,6.8658036E-1,1.048954E0,2.0230713E0,3.829751E2,1E0,3.2096077E3,-1.5843065E0,-9.44101E-1,-7.629142E-1,-5.0649065E-1,2.8503484E3,7.970349E2,-1.3064747E0,-2.001062E0,1E0,4.5957456E3,1E0,1.7381052E3,1E0,2.8181754E2,1E0,5.7598114E0,-4.5709072E1,1.7170929E1,1E0,1E0,1.1438609E0,5.2247516E2,7.22633E2,1.00013855E2,3E0,1E0,1E0,-1.4323344E0,-2.4934338E1,-2.0294107E2,1E0,1E0,3E0,3E0,5.6054333E2,9.6947495E1,1.2712083E2,-1.6688483E0,-1.0310277E0,-1.1252878E0,1E0,1.327155E3,1E0,1.8809631E2,-2.2340726E2,1E0,6.356754E1,1E0,1E0,1.5400752E3,4.853877E0,1.048954E0,1.4890216E3,2.4706636E2,-1.9435784E0,1E0,1E0,2.6825952E3,-1.6561608E0,-2.732625E2,-7.629142E-1,-7.629142E-1,-7.651664E-1,1.4307278E3,3E0,7.491357E2,-5.817274E-1,1E0,2E0,8.012593E-1,-5.94766E1,-2.5151344E2,1E0,1E0,7.561552E1,-1.0769253E2,1E0,1.788024E3,1E0,2.7223502E2,1E0,-1.5638936E2,-2.4075287E2,-3.2346066E1,1E0,1.4186273E3,1.2301408E0,4.682626E2,4.318784E2,1.6799886E2,-5.056344E1,6.6917944E2,2.2710671E3,9.163966E1,7.517121E2,1.9418448E3,2.094782E2,-8.81912E1,8.4352167E2,1.2406579E2,-1.8157793E1,1.7982704E2,3.195518E2,1.3327327E2,-2.4866443E2,-1.2741698E0,-2.4524533E2,8.235001E0,1.298913E3,-4.944149E1,1.9323781E2,-2.0756084E2,4.996934E2,1.682285E1,2.3187876E3,3.6223865E2,1.4073358E3,1.2857127E2,5.126446E2,-3.437604E1,-4.1778528E2,-1.8973447E2,-5.372699E2,-2.7790768E2,-8.567251E1,-3.7705792E2,-3.1812808E2,-4.2624033E2],"split_indices":[1,559,583,0,1,1,214,1,346,583,224,354,487,317,1,352,555,554,1,583,320,486,0,37,0,1,0,1,1,0,0,560,0,0,1,1,0,0,0,1,0,391,0,488,0,485,0,583,1,0,0,318,223,0,0,0,0,583,44,513,0,0,0,434,349,583,583,0,0,0,1,0,1,319,0,341,0,0,360,0,567,224,0,1,1,0,0,0,548,346,0,0,0,1,1,0,0,583,0,1,391,583,0,0,0,580,201,0,0,378,0,106,0,106,0,0,0,555,0,1,0,0,0,0,0,0,0,0,0,0,0,0,0,0,0,0,0,0,0,0,0,0,0,0,0,0,0,0,0,0,0,0,0,0,0,0,0,0,0,0,0],"split_type":[0,0,0,0,0,0,0,0,0,0,0,0,0,0,0,0,0,0,0,0,0,0,0,0,0,0,0,0,0,0,0,0,0,0,0,0,0,0,0,0,0,0,0,0,0,0,0,0,0,0,0,0,0,0,0,0,0,0,0,0,0,0,0,0,0,0,0,0,0,0,0,0,0,0,0,0,0,0,0,0,0,0,0,0,0,0,0,0,0,0,0,0,0,0,0,0,0,0,0,0,0,0,0,0,0,0,0,0,0,0,0,0,0,0,0,0,0,0,0,0,0,0,0,0,0,0,0,0,0,0,0,0,0,0,0,0,0,0,0,0,0,0,0,0,0,0,0,0,0,0,0,0,0,0,0,0,0,0,0,0,0],"sum_hessian":[5.463E3,2.037E3,3.426E3,1.657E3,3.8E2,1.097E3,2.329E3,2.05E2,1.452E3,1.47E2,2.33E2,4.03E2,6.94E2,2.271E3,5.8E1,1.59E2,4.6E1,1.439E3,1.3E1,1.9E1,1.28E2,2.27E2,6E0,4.01E2,2E0,6.92E2,2E0,2.257E3,1.4E1,3.7E1,2.1E1,1.57E2,2E0,3.2E1,1.4E1,1.35E3,8.9E1,8E0,5E0,6E0,1.3E1,1.23E2,5E0,2.19E2,8E0,4E2,1E0,6.87E2,5E0,1E0,1E0,1.619E3,6.38E2,1E1,4E0,3.6E1,1E0,2.9E1,1.28E2,1.1E1,2.1E1,1E0,1.3E1,7.58E2,5.92E2,3.8E1,5.1E1,4E0,2E0,2E0,1.1E1,1.18E2,5E0,2.1E2,9E0,3.98E2,2E0,7E0,6.8E2,1E0,4E0,1.616E3,3E0,6.29E2,9E0,9E0,1E0,8E0,2.1E1,1.24E2,4E0,9E0,2E0,1.4E1,7E0,7.55E2,3E0,5.82E2,1E1,4E0,3.4E1,9E0,4.2E1,2E0,9E0,7.3E1,4.5E1,2E0,3E0,2.08E2,2E0,3.97E2,1E0,6.76E2,4E0,3E0,1E0,1.613E3,3E0,6.28E2,1E0,3E0,6E0,5E0,3E0,2E1,1E0,1.22E2,2E0,6E0,3E0,7E0,7E0,4E0,3E0,2.73E2,4.82E2,8.3E1,4.99E2,3E0,1E0,3.2E1,2E0,4E0,5E0,3.6E1,6E0,7E1,3E0,4.1E1,4E0,1.95E2,1.3E1,3.73E2,2.4E1,6.66E2,1E1,1.487E3,1.26E2,3.77E2,2.51E2],"tree_param":{"num_deleted":"0","num_feature":"584","num_nodes":"161","size_leaf_vector":"1"}},{"base_weights":[-7.9615474E0,4.166147E3,-2.5202544E3,2.6010188E3,1.0977008E4,-1.1842693E3,-4.3671304E3,1.1328899E4,1.7511299E3,1.8521633E4,6.7680723E3,-1.4459303E3,6.7025386E3,-4.6777407E3,-1.711462E3,1.0166444E4,5.466236E3,1.5382144E3,2.2993588E4,1.9309082E4,-1.506503E3,6.02206E3,1.6586985E3,-1.9879318E3,4.992509E2,7.472129E2,4.8600293E2,-4.8205796E3,-2.5561423E3,-2.2828697E2,-3.0949604E3,1.3362716E4,9.482335E2,1.173E3,7.497383E3,2.5717568E3,7.6051355E2,2.0082857E4,-1.3548312E2,1.1476764E2,-2.1559665E2,5.412949E3,1.4886504E3,-1.7986837E3,-4.3059015E2,2.9709094E2,1.2914031E3,-4.8372715E3,4.5421472E2,-1.2524043E3,-3.001776E2,-1.0639563E3,1.9195338E3,-3.4575393E3,1.459804E2,2.2911176E4,1.0276216E4,-1.2082643E3,5.12591E3,2.8343813E3,-3.4278793E1,1.0789649E4,3.456114E3,2.0782674E4,-8.407098E2,7.221283E1,-8.3196814E2,5.955595E3,7.596798E2,-1.8739177E3,4.586425E3,8.534021E2,-3.3853296E3,-4.269082E3,-5.2500967E3,2.9336276E2,-1.6291089E2,-1.3711322E3,2.355562E2,3.119753E3,-9.605376E2,-3.6939255E3,-9.2921063E2,-3.5409122E2,2.6115994E4,1.0612859E4,-1.7378174E2,-6.232275E2,-3.2847684E2,5.6253365E1,1.0179209E4,4.9828706E3,1.9777672E3,-1.6528465E2,6.854043E2,1.1383372E4,-1.1556523E2,-7.5317804E2,4.3410684E3,2.4797951E4,1.4423689E4,4.703953E1,-1.1905638E2,-1.0431445E1,-8.572784E1,6.579695E3,1.7571552E3,2.1169193E2,4.3088107E2,-1.0685366E3,-2.4343923E3,4.2595016E2,6.728245E1,6.5467816E2,5.4925104E2,-1.2435491E2,-3.2579184E2,-2.5332966E3,-4.4576465E3,-5.274295E3,3.3825476E2,9.9806435E1,-9.7890625E0,-1.5394137E3,1.459522E3,3.6991443E3,-1.6707358E2,-1.5701604E3,9.914467E1,-3.7959092E3,9.10498E1,-2.694315E2,5.15691E2,9.611921E1,-1.8133264E2,2.4754214E3,-9.133263E1,8.900938E2,2.1184202E3,-8.362878E1,2.0154956E2,1.162096E2,-1.919305E2,1.3639744E3,-1.0169746E2,4.1616855E2,1.9684202E3,1.6325655E2,6.291653E2,-2.6807978E0,-3.8566644E2,1.0765513E3,-4.7216625E1,-4.8886085E0,-1.9026178E2,4.7225137E2,-2.5929933E0,2.2644583E3,-2.8543478E1,1.3617743E3,1.5514963E2,6.26863E2,1.3578195E1,1.01933716E2,5.772837E2,-8.530469E-1,1.1827975E2,5.540264E2,-1.0961384E2,-2.2750432E2,2.9811194E2,8.144073E1,-2.2969897E2,-2.4146243E2,1.663244E2,-4.055945E2,-1.2132563E2,-4.76839E2,-7.284145E1,-2.4782871E1,1.6417744E1,1.2915158E1,-1.6733118E2,1.5260464E2,2.2477999E1,6.000958E2,1.2664453E2,-1.574692E2,-1.47353325E1,3.806426E0,-3.4706616E2,1.4359267E2,-1.7883022E2],"categories":[],"categories_nodes":[],"categories_segments":[],"categories_sizes":[],"default_left":[0,0,0,0,0,0,0,0,0,0,0,0,0,0,0,0,0,0,0,0,0,0,0,0,0,0,0,0,0,0,0,0,0,0,0,0,0,0,0,0,0,0,0,0,0,0,0,0,0,0,0,0,0,0,0,0,0,0,0,0,0,0,0,0,0,0,0,0,0,0,0,0,0,0,0,0,0,0,0,0,0,0,0,0,0,0,0,0,0,0,0,0,0,0,0,0,0,0,0,0,0,0,0,0,0,0,0,0,0,0,0,0,0,0,0,0,0,0,0,0,0,0,0,0,0,0,0,0,0,0,0,0,0,0,0,0,0,0,0,0,0,0,0,0,0,0,0,0,0,0,0,0,0,0,0,0,0,0,0,0,0,0,0,0,0,0,0,0,0,0,0,0,0,0,0,0,0,0,0,0,0,0,0,0,0,0,0,0,0,0,0,0,0],"id":2,"left_children":[1,3,5,7,9,11,13,15,17,19,21,23,25,27,29,31,-1,33,35,37,39,41,-1,43,45,-1,-1,47,49,51,53,55,57,59,61,-1,-1,63,65,-1,-1,67,-1,69,-1,71,-1,73,-1,75,-1,77,79,81,-1,83,85,87,89,91,93,95,97,99,101,-1,103,105,107,109,111,113,115,117,119,121,-1,123,-1,125,127,129,131,133,135,137,-1,139,-1,141,143,145,147,149,-1,151,-1,153,155,157,159,-1,-1,-1,-1,161,163,-1,165,167,169,-1,-1,171,-1,-1,-1,173,175,177,-1,-1,179,181,183,185,-1,187,-1,189,-1,-1,191,-1,-1,-1,-1,-1,-1,-1,-1,-1,-1,-1,-1,-1,-1,-1,-1,-1,-1,-1,-1,-1,-1,-1,-1,-1,-1,-1,-1,-1,-1,-1,-1,-1,-1,-1,-1,-1,-1,-1,-1,-1,-1,-1,-1,-1,-1,-1,-1,-1,-1,-1,-1,-1,-1,-1,-1,-1,-1,-1,-1],"loss_changes":[5.7298702E10,2.1827584E10,8.4059443E9,1.2362742E10,1.191134E10,4.1095662E9,1.164376E9,7.265075E9,6.8310794E9,2.203091E9,1.9442606E9,2.0262264E9,4.3668736E7,3.6324147E8,3.125317E8,4.3058227E9,0E0,3.275247E9,7.346084E8,1.9764716E9,2.342256E7,1.3393316E9,0E0,7.776553E8,1.1673812E9,0E0,0E0,2.4597504E8,7.79817E7,1.4049286E8,1.463314E8,2.7414262E9,3.7276077E8,2.8644116E9,1.08292E9,0E0,0E0,1.8799575E9,5.9075225E6,0E0,0E0,5.641308E8,0E0,6.945162E8,0E0,8.579789E8,0E0,2.3569203E8,0E0,3.1238572E7,0E0,7.049909E7,8.204536E7,3.7352896E7,0E0,1.8825687E9,3.944151E8,3.5436136E7,3.574931E8,1.0863729E9,8.3330925E8,3.6617062E8,1.6299766E8,2.3996047E9,5.3284095E6,0E0,2.087115E5,5.087698E8,1.1580961E7,6.244874E8,2.463904E6,3.7066976E8,1.5836864E7,1.4563738E8,1.8875187E8,2.7436582E6,0E0,2.9740144E7,0E0,5.9867664E7,1.3517382E7,3.9838784E7,2.9939224E7,1.6113859E7,8.847534E8,3.1924736E8,0E0,2.605724E7,0E0,2.9833488E7,4.2820435E8,8.277366E8,3.301788E8,4.5581654E8,0E0,3.224658E8,0E0,8.3253485E6,1.3890752E8,6.718669E8,4.147835E8,0E0,0E0,0E0,0E0,4.340096E8,6.980579E7,0E0,9.363194E6,6.366542E8,4.575708E8,0E0,0E0,2.870688E8,0E0,0E0,0E0,4.597235E7,5.802189E7,6.434611E7,0E0,0E0,6.1110956E5,2.7986896E7,2.91565E5,8.327797E7,0E0,1.190402E6,0E0,1.5629696E7,0E0,0E0,2.5256198E7,0E0,0E0,0E0,0E0,0E0,0E0,0E0,0E0,0E0,0E0,0E0,0E0,0E0,0E0,0E0,0E0,0E0,0E0,0E0,0E0,0E0,0E0,0E0,0E0,0E0,0E0,0E0,0E0,0E0,0E0,0E0,0E0,0E0,0E0,0E0,0E0,0E0,0E0,0E0,0E0,0E0,0E0,0E0,0E0,0E0,0E0,0E0,0E0,0E0,0E0,0E0,0E0,0E0,0E0,0E0,0E0,0E0,0E0,0E0,0E0],"parents":[2147483647,0,0,1,1,2,2,3,3,4,4,5,5,6,6,7,7,8,8,9,9,10,10,11,11,12,12,13,13,14,14,15,15,17,17,18,18,19,19,20,20,21,21,23,23,24,24,27,27,28,28,29,29,30,30,31,31,32,32,33,33,34,34,37,37,38,38,41,41,43,43,45,45,47,47,49,49,51,51,52,52,53,53,55,55,56,56,57,57,58,58,59,59,60,60,61,61,62,62,63,63,64,64,66,66,67,67,68,68,69,69,70,70,71,71,72,72,73,73,74,74,75,75,77,77,79,79,80,80,81,81,82,82,83,83,84,84,85,85,87,87,89,89,90,90,91,91,92,92,93,93,95,95,97,97,98,98,99,99,100,100,105,105,106,106,108,108,109,109,110,110,113,113,117,117,118,118,119,119,122,122,123,123,124,124,125,125,127,127,129,129,132,132],"right_children":[2,4,6,8,10,12,14,16,18,20,22,24,26,28,30,32,-1,34,36,38,40,42,-1,44,46,-1,-1,48,50,52,54,56,58,60,62,-1,-1,64,66,-1,-1,68,-1,70,-1,72,-1,74,-1,76,-1,78,80,82,-1,84,86,88,90,92,94,96,98,100,102,-1,104,106,108,110,112,114,116,118,120,122,-1,124,-1,126,128,130,132,134,136,138,-1,140,-1,142,144,146,148,150,-1,152,-1,154,156,158,160,-1,-1,-1,-1,162,164,-1,166,168,170,-1,-1,172,-1,-1,-1,174,176,178,-1,-1,180,182,184,186,-1,188,-1,190,-1,-1,192,-1,-1,-1,-1,-1,-1,-1,-1,-1,-1,-1,-1,-1,-1,-1,-1,-1,-1,-1,-1,-1,-1,-1,-1,-1,-1,-1,-1,-1,-1,-1,-1,-1,-1,-1,-1,-1,-1,-1,-1,-1,-1,-1,-1,-1,-1,-1,-1,-1,-1,-1,-1,-1,-1,-1,-1,-1,-1,-1,-1],"split_conditions":[-2.1935374E-1,1E0,6.8658036E-1,-1.5023924E0,-9.44101E-1,1E0,1E0,1E0,1E0,1E0,1E0,1E0,1.430199E-1,1E0,1.048954E0,-1.3064747E0,5.466236E3,1E0,-9.44101E-1,1E0,-2.0441747E0,1E0,1.6586985E3,1E0,1E0,7.472129E2,4.8600293E2,1E0,1.048954E0,9.7370976E-1,1E0,1E0,-1.5843065E0,-9.44101E-1,-2.0414174E-1,2.5717568E3,7.6051355E2,1E0,-1.1252878E0,1.1476764E2,-2.1559665E2,1E0,1.4886504E3,1E0,-4.3059015E2,1E0,1.2914031E3,1.2301408E0,4.5421472E2,-6.3769674E-1,-3.001776E2,1E0,1E0,2.136075E0,1.459804E2,-2.0312219E0,1E0,1E0,1E0,-1.0310277E0,1E0,1E0,-6.0993414E-2,-9.7468877E-1,-2.001062E0,7.221283E1,-1.4549686E0,6.5755045E-1,-7.629142E-1,1.430199E-1,8.874845E-1,1E0,-3.8166914E-2,-5.682854E-1,1E0,-1.5023924E0,-1.6291089E2,1E0,2.355562E2,1E0,2.393265E0,1E0,-7.400174E-1,1E0,1E0,1E0,-1.7378174E2,1E0,-3.2847684E2,-9.44101E-1,-7.629142E-1,1E0,1E0,1E0,6.854043E2,1E0,-1.1556523E2,-7.536429E-2,8.30001E-1,1E0,1E0,4.703953E1,-1.1905638E2,-1.0431445E1,-8.572784E1,1E0,1E0,2.1169193E2,3.4139118E-1,-1.5411938E0,1E0,4.2595016E2,6.728245E1,1E0,5.4925104E2,-1.2435491E2,-3.2579184E2,1E0,1E0,1E0,3.3825476E2,9.9806435E1,-9.951005E-1,-3.831885E-1,-7.536429E-2,1.1438609E0,-1.6707358E2,1E0,9.914467E1,-8.0827904E-1,9.10498E1,-2.694315E2,1E0,9.611921E1,-1.8133264E2,2.4754214E3,-9.133263E1,8.900938E2,2.1184202E3,-8.362878E1,2.0154956E2,1.162096E2,-1.919305E2,1.3639744E3,-1.0169746E2,4.1616855E2,1.9684202E3,1.6325655E2,6.291653E2,-2.6807978E0,-3.8566644E2,1.0765513E3,-4.7216625E1,-4.8886085E0,-1.9026178E2,4.7225137E2,-2.5929933E0,2.2644583E3,-2.8543478E1,1.3617743E3,1.5514963E2,6.26863E2,1.3578195E1,1.01933716E2,5.772837E2,-8.530469E-1,1.1827975E2,5.540264E2,-1.0961384E2,-2.2750432E2,2.9811194E2,8.144073E1,-2.2969897E2,-2.4146243E2,1.663244E2,-4.055945E2,-1.2132563E2,-4.76839E2,-7.284145E1,-2.4782871E1,1.6417744E1,1.2915158E1,-1.6733118E2,1.5260464E2,2.2477999E1,6.000958E2,1.2664453E2,-1.574692E2,-1.47353325E1,3.806426E0,-3.4706616E2,1.4359267E2,-1.7883022E2],"split_indices":[1,559,1,0,1,214,559,442,346,414,486,559,1,306,1,1,0,554,1,391,0,212,0,409,486,0,0,108,1,0,223,560,0,1,0,0,0,416,1,0,0,580,0,349,0,412,0,1,0,0,0,214,580,1,0,1,99,513,581,0,349,240,0,0,0,0,0,0,1,1,0,488,1,0,283,0,0,488,0,204,0,188,0,521,521,352,0,307,0,1,1,352,553,409,0,391,0,0,0,184,378,0,0,0,0,199,398,0,0,0,292,0,0,199,0,0,0,34,467,27,0,0,0,0,0,0,0,214,0,0,0,0,495,0,0,0,0,0,0,0,0,0,0,0,0,0,0,0,0,0,0,0,0,0,0,0,0,0,0,0,0,0,0,0,0,0,0,0,0,0,0,0,0,0,0,0,0,0,0,0,0,0,0,0,0,0,0,0,0,0,0,0,0],"split_type":[0,0,0,0,0,0,0,0,0,0,0,0,0,0,0,0,0,0,0,0,0,0,0,0,0,0,0,0,0,0,0,0,0,0,0,0,0,0,0,0,0,0,0,0,0,0,0,0,0,0,0,0,0,0,0,0,0,0,0,0,0,0,0,0,0,0,0,0,0,0,0,0,0,0,0,0,0,0,0,0,0,0,0,0,0,0,0,0,0,0,0,0,0,0,0,0,0,0,0,0,0,0,0,0,0,0,0,0,0,0,0,0,0,0,0,0,0,0,0,0,0,0,0,0,0,0,0,0,0,0,0,0,0,0,0,0,0,0,0,0,0,0,0,0,0,0,0,0,0,0,0,0,0,0,0,0,0,0,0,0,0,0,0,0,0,0,0,0,0,0,0,0,0,0,0,0,0,0,0,0,0,0,0,0,0,0,0,0,0,0,0,0,0],"sum_hessian":[5.46E3,2.051E3,3.409E3,1.67E3,3.81E2,1.98E3,1.429E3,1.46E2,1.524E3,1.34E2,2.47E2,1.918E3,6.2E1,1.278E3,1.51E2,1.45E2,1E0,1.511E3,1.3E1,1.29E2,5E0,2.35E2,1.2E1,1.5E3,4.18E2,2.3E1,3.9E1,1.195E3,8.3E1,7.4E1,7.7E1,1.07E2,3.8E1,1.426E3,8.5E1,8E0,5E0,1.24E2,5E0,1E0,4E0,2.25E2,1E1,1.408E3,9.2E1,4.14E2,4E0,1.194E3,1E0,3.3E1,5E1,5.4E1,2E1,7.2E1,5E0,2.3E1,8.4E1,2.6E1,1.2E1,5.99E2,8.27E2,4.5E1,4E1,1.2E2,4E0,2E0,3E0,2.01E2,2.4E1,1.393E3,1.5E1,3.61E2,5.3E1,5.12E2,6.82E2,9E0,2.4E1,5.1E1,3E0,1.4E1,6E0,6.5E1,7E0,3E0,2E1,8.2E1,2E0,2.3E1,3E0,7E0,5E0,1.68E2,4.31E2,8.15E2,1.2E1,4.3E1,2E0,7E0,3.3E1,7E1,5E1,1E0,3E0,1E0,2E0,1.74E2,2.7E1,2E0,2.2E1,5.74E2,8.19E2,1.4E1,1E0,3.5E2,1.1E1,7E0,4.6E1,5.3E1,4.59E2,6.81E2,1E0,1E0,8E0,4.9E1,2E0,1.3E1,1E0,5E0,1E0,6.4E1,1E0,2E0,5E0,2E0,1E0,1.9E1,1E0,8.1E1,1E0,2.2E1,1E0,5E0,2E0,3E0,2E0,1.67E2,1E0,4.2E2,1.1E1,7.91E2,2.4E1,4.1E1,2E0,6E0,1E0,2.7E1,6E0,6.9E1,1E0,4.7E1,3E0,1.64E2,1E1,2.6E1,1E0,1.6E1,6E0,1E1,5.64E2,8.07E2,1.2E1,3.26E2,2.4E1,5.2E1,1E0,4.51E2,8E0,6.77E2,4E0,3E0,5E0,8E0,4.1E1,1E0,1E0,4E0,9E0,4E0,1E0,1E0,6.3E1,4E0,1E0],"tree_param":{"num_deleted":"0","num_feature":"584","num_nodes":"193","size_leaf_vector":"1"}},{"base_weights":[5.7737373E1,5.9160947E3,-1.5524886E3,3.9997756E3,1.5613895E4,1.750584E2,-3.321526E3,3.8256387E3,5.3022485E3,1.4319258E4,4.1663384E3,-7.9172394E2,3.3131396E3,-4.6450527E3,-2.2917266E3,9.239353E3,2.511656E3,1.9075986E2,1.6072601E4,-8.48514E2,2.098214E3,2.9775833E3,1.9365266E3,-4.7265176E3,-1.4457908E3,-2.4157217E3,9.3755023E2,8.63547E3,3.0109126E3,2.161406E3,2.5180188E4,4.4831963E3,-1.8515348E3,2.0643469E4,1.0210573E4,-3.3329587E3,-3.7727545E2,2.5393708E3,1.4521566E3,-4.780082E3,-1.8101413E2,4.4647137E2,-2.3365151E3,-2.561109E3,3.6472406E2,7.9377E3,2.4753425E3,2.082146E3,1.9432428E3,2.415644E3,2.0744612E2,4.966986E3,3.284001E1,4.7047977E2,-2.607859E2,2.1341877E4,-1.8485332E2,1.2580756E4,6.746375E3,-3.4218684E3,2.4088225E2,-5.1483547E1,-3.370023E3,2.2514412E3,1.9734735E3,-4.791388E3,1.5739249E2,-2.7044293E2,2.0702101E2,-2.8828867E3,-6.5396387E2,-2.5997437E3,8.982902E2,1.3916266E4,6.2261567E3,2.418477E3,-1.2374207E3,4.8878748E2,6.543214E1,1.1775973E2,-3.8768146E2,2.2273648E4,3.929552E3,-1.1017371E2,6.865476E2,4.277619E3,1.4471355E4,7.1680073E3,-2.1018677E2,-1.760564E2,-3.6029417E3,-1.6159355E2,8.598462E3,-3.4169849E3,9.185274E1,2.1193872E3,1.5482535E3,-4.8004263E3,9.642976E1,-1.2358447E2,1.1605957E3,-3.053019E3,-2.5178995E1,-1.4576313E3,1.2498123E2,-1.9313263E3,-3.1662148E3,-7.9549484E1,1.4473024E3,5.2543567E2,1.9093674E3,2.3630386E2,-2.585751E2,1.3041574E2,-1.2526029E2,-6.516011E1,2.8667933E1,2.0315122E3,-8.447722E1,4.306229E2,-3.5979816E1,7.9667435E1,2.6582813E0,5.698577E2,-6.4767715E1,1.4199713E3,2.9101362E1,6.8507855E2,2.8526661E0,5.7770336E1,-8.305275E1,2.0384697E2,-2.3203601E2,-3.008585E2,-5.384161E2,-1.9422514E1,1.5222788E3,9.440917E2,3.6758606E2,-3.1768185E2,-1.4880408E2,1.5506224E2,6.29149E2,-4.328458E2,9.41165E1,-6.5718575E1,1.7990096E2,-2.9139706E2,-3.0571054E1,-1.64869E2,1.2348018E1,-1.8209564E2,1.022099E2,-2.9434207E2,2.9482635E2],"categories":[],"categories_nodes":[],"categories_segments":[],"categories_sizes":[],"default_left":[0,0,0,0,0,0,0,0,0,0,0,0,0,0,0,0,0,0,0,0,0,0,0,0,0,0,0,0,0,0,0,0,0,0,0,0,0,0,0,0,0,0,0,0,0,0,0,0,0,0,0,0,0,0,0,0,0,0,0,0,0,0,0,0,0,0,0,0,0,0,0,0,0,0,0,0,0,0,0,0,0,0,0,0,0,0,0,0,0,0,0,0,0,0,0,0,0,0,0,0,0,0,0,0,0,0,0,0,0,0,0,0,0,0,0,0,0,0,0,0,0,0,0,0,0,0,0,0,0,0,0,0,0,0,0,0,0,0,0,0,0,0,0,0,0,0,0,0,0,0,0,0,0,0,0],"id":3,"left_children":[1,3,5,7,9,11,13,15,-1,17,-1,19,21,23,25,27,29,31,33,35,-1,37,-1,39,41,43,-1,45,-1,47,49,51,53,55,57,59,61,63,-1,65,-1,67,69,71,-1,73,-1,75,-1,-1,-1,77,-1,79,-1,81,83,85,87,89,-1,91,93,95,-1,97,-1,99,-1,101,103,105,-1,107,109,111,113,-1,-1,-1,115,117,119,-1,121,123,125,127,129,131,133,135,137,139,-1,141,-1,143,-1,-1,145,147,-1,149,-1,151,153,-1,-1,-1,-1,-1,-1,-1,-1,-1,-1,-1,-1,-1,-1,-1,-1,-1,-1,-1,-1,-1,-1,-1,-1,-1,-1,-1,-1,-1,-1,-1,-1,-1,-1,-1,-1,-1,-1,-1,-1,-1,-1,-1,-1,-1,-1,-1,-1],"loss_changes":[5.1891986E10,2.191578E10,1.318822E10,9.044742E9,6.419108E9,6.6341944E9,2.8845425E9,7.010182E9,0E0,4.7005286E9,0E0,2.3283804E9,3.017646E9,2.2896435E8,1.9460567E9,2.244395E9,6.2507566E9,2.182345E8,4.1066578E9,1.9526568E9,0E0,2.8470318E9,0E0,1.1267072E8,4.5912744E7,1.1426458E9,0E0,2.077953E9,0E0,1.1282066E9,3.3196646E8,1.2303712E7,4.402485E7,1.360769E9,4.7065344E8,1.6044134E8,1.3705143E9,2.658925E9,0E0,8.231731E7,0E0,1.4538108E7,1.276968E7,6.178504E8,0E0,1.740162E9,0E0,8.8800154E8,0E0,0E0,0E0,5.86176E6,0E0,6.0501015E6,0E0,1.2850872E9,6.210184E6,5.668649E8,1.0861914E8,1.532969E8,0E0,1.212368E9,3.5433856E7,8.9251994E8,0E0,5.729485E7,0E0,1.7390082E7,0E0,4.04244E6,1.5539753E7,4.292526E8,0E0,1.3100759E9,6.1873715E8,8.020078E8,3.4720256E7,0E0,0E0,0E0,1.6496155E6,6.317793E8,2.9749848E7,0E0,4.6793025E5,1.2203981E8,6.3652096E8,1.0722611E8,3.6140895E6,1.0549772E8,1.1407206E8,1.169966E9,5.089613E7,1.5574784E7,0E0,9.164296E8,0E0,5.653299E7,0E0,0E0,1.0847088E7,3.807952E6,0E0,4.087217E6,0E0,1.5689664E8,4.4319283E8,0E0,0E0,0E0,0E0,0E0,0E0,0E0,0E0,0E0,0E0,0E0,0E0,0E0,0E0,0E0,0E0,0E0,0E0,0E0,0E0,0E0,0E0,0E0,0E0,0E0,0E0,0E0,0E0,0E0,0E0,0E0,0E0,0E0,0E0,0E0,0E0,0E0,0E0,0E0,0E0,0E0,0E0,0E0,0E0,0E0,0E0,0E0,0E0],"parents":[2147483647,0,0,1,1,2,2,3,3,4,4,5,5,6,6,7,7,9,9,11,11,12,12,13,13,14,14,15,15,16,16,17,17,18,18,19,19,21,21,23,23,24,24,25,25,27,27,29,29,30,30,31,31,32,32,33,33,34,34,35,35,36,36,37,37,39,39,41,41,42,42,43,43,45,45,47,47,51,51,53,53,55,55,56,56,57,57,58,58,59,59,61,61,62,62,63,63,65,65,67,67,69,69,70,70,71,71,73,73,74,74,75,75,76,76,80,80,81,81,82,82,84,84,85,85,86,86,87,87,88,88,89,89,90,90,91,91,92,92,93,93,95,95,97,97,100,100,101,101,103,103,105,105,106,106],"right_children":[2,4,6,8,10,12,14,16,-1,18,-1,20,22,24,26,28,30,32,34,36,-1,38,-1,40,42,44,-1,46,-1,48,50,52,54,56,58,60,62,64,-1,66,-1,68,70,72,-1,74,-1,76,-1,-1,-1,78,-1,80,-1,82,84,86,88,90,-1,92,94,96,-1,98,-1,100,-1,102,104,106,-1,108,110,112,114,-1,-1,-1,116,118,120,-1,122,124,126,128,130,132,134,136,138,140,-1,142,-1,144,-1,-1,146,148,-1,150,-1,152,154,-1,-1,-1,-1,-1,-1,-1,-1,-1,-1,-1,-1,-1,-1,-1,-1,-1,-1,-1,-1,-1,-1,-1,-1,-1,-1,-1,-1,-1,-1,-1,-1,-1,-1,-1,-1,-1,-1,-1,-1,-1,-1,-1,-1,-1,-1,-1,-1],"split_conditions":[-7.629142E-1,1E0,3.242067E-1,1E0,1E0,1E0,3E0,-1.3549472E0,5.3022485E3,3E0,4.1663384E3,1E0,1E0,1E0,1E0,1E0,1E0,2E0,-8.945043E-1,3E0,2.098214E3,1E0,1.9365266E3,1E0,8.6776716E-1,1E0,9.3755023E2,1E0,3.0109126E3,1E0,-4.4900712E-1,1E0,-1.8429823E0,1E0,-9.44101E-1,1E0,1E0,1E0,1.4521566E3,1E0,-1.8101413E2,1E0,2.136075E0,1E0,3.6472406E2,-1.8500351E0,2.4753425E3,1E0,1.9432428E3,2.415644E3,2.0744612E2,1E0,3.284001E1,-2.001062E0,-2.607859E2,1E0,-1.756757E0,-7.2205377E-1,1E0,1E0,2.4088225E2,1E0,1E0,1E0,1.9734735E3,1E0,1.5739249E2,1E0,2.0702101E2,1E0,1E0,6.8658036E-1,8.982902E2,3E0,1E0,1E0,-1.6688483E0,4.8878748E2,6.543214E1,1.1775973E2,-1.6688483E0,1E0,-1.4549686E0,-1.1017371E2,-1.0798887E0,-7.651664E-1,1E0,1E0,-6.070868E-1,-2.3344395E-1,1E0,1E0,-3.8166914E-2,1E0,9.185274E1,1E0,1.5482535E3,1E0,9.642976E1,-1.2358447E2,-3.0529833E-1,1E0,-2.5178995E1,2.0230713E0,1.2498123E2,1E0,1E0,-7.9549484E1,1.4473024E3,5.2543567E2,1.9093674E3,2.3630386E2,-2.585751E2,1.3041574E2,-1.2526029E2,-6.516011E1,2.8667933E1,2.0315122E3,-8.447722E1,4.306229E2,-3.5979816E1,7.9667435E1,2.6582813E0,5.698577E2,-6.4767715E1,1.4199713E3,2.9101362E1,6.8507855E2,2.8526661E0,5.7770336E1,-8.305275E1,2.0384697E2,-2.3203601E2,-3.008585E2,-5.384161E2,-1.9422514E1,1.5222788E3,9.440917E2,3.6758606E2,-3.1768185E2,-1.4880408E2,1.5506224E2,6.29149E2,-4.328458E2,9.41165E1,-6.5718575E1,1.7990096E2,-2.9139706E2,-3.0571054E1,-1.64869E2,1.2348018E1,-1.8209564E2,1.022099E2,-2.9434207E2,2.9482635E2],"split_indices":[1,559,1,442,320,559,583,0,0,583,0,318,224,559,317,330,346,583,0,583,0,486,0,106,1,214,0,44,0,317,0,549,0,201,1,558,555,317,0,485,0,214,1,318,0,1,0,135,0,0,0,457,0,0,0,239,0,0,199,583,0,214,495,318,0,359,0,581,0,574,567,1,0,583,352,99,1,0,0,0,1,182,0,0,0,0,201,576,0,0,513,55,1,269,0,214,0,354,0,0,0,566,0,0,0,359,223,0,0,0,0,0,0,0,0,0,0,0,0,0,0,0,0,0,0,0,0,0,0,0,0,0,0,0,0,0,0,0,0,0,0,0,0,0,0,0,0,0,0,0,0,0,0,0,0],"split_type":[0,0,0,0,0,0,0,0,0,0,0,0,0,0,0,0,0,0,0,0,0,0,0,0,0,0,0,0,0,0,0,0,0,0,0,0,0,0,0,0,0,0,0,0,0,0,0,0,0,0,0,0,0,0,0,0,0,0,0,0,0,0,0,0,0,0,0,0,0,0,0,0,0,0,0,0,0,0,0,0,0,0,0,0,0,0,0,0,0,0,0,0,0,0,0,0,0,0,0,0,0,0,0,0,0,0,0,0,0,0,0,0,0,0,0,0,0,0,0,0,0,0,0,0,0,0,0,0,0,0,0,0,0,0,0,0,0,0,0,0,0,0,0,0,0,0,0,0,0,0,0,0,0,0,0],"sum_hessian":[5.497E3,1.184E3,4.313E3,9.91E2,1.93E2,2.183E3,2.13E3,9.9E2,1E0,1.88E2,5E0,1.67E3,5.13E2,9.29E2,1.201E3,1.91E2,7.99E2,2.1E1,1.67E2,1.668E3,2E0,5.06E2,7E0,9.05E2,2.4E1,1.191E3,1E1,1.89E2,2E0,7.89E2,1E1,6E0,1.5E1,9.1E1,7.6E1,2.64E2,1.404E3,4.92E2,1.4E1,8.86E2,1.9E1,8E0,1.6E1,1.166E3,2.5E1,1.85E2,4E0,7.88E2,1E0,9E0,1E0,5E0,1E0,5E0,1E1,8.8E1,3E0,4.2E1,3.4E1,2.61E2,3E0,1.268E3,1.36E2,4.87E2,5E0,8.85E2,1E0,7E0,1E0,1.1E1,5E0,1.164E3,2E0,3.8E1,1.47E2,7.16E2,7.2E1,4E0,1E0,2E0,3E0,8.3E1,5E0,1E0,2E0,9E0,3.3E1,3.2E1,2E0,1.4E1,2.47E2,1.254E3,1.4E1,1.35E2,1E0,4.85E2,2E0,8.84E2,1E0,4E0,3E0,1E1,1E0,4E0,1E0,5.38E2,6.26E2,5E0,3.3E1,1.46E2,1E0,6.9E2,2.6E1,3E0,6.9E1,2E0,1E0,8.2E1,1E0,4E0,1E0,1E0,1E0,6E0,3E0,3E1,3E0,3E1,2E0,1E0,1E0,7E0,7E0,2.27E2,2E1,1.252E3,2E0,8E0,6E0,1.25E2,1E1,4.51E2,3.4E1,8.83E2,1E0,1E0,2E0,9E0,1E0,3E0,1E0,5.23E2,1.5E1,6.17E2,9E0],"tree_param":{"num_deleted":"0","num_feature":"584","num_nodes":"155","size_leaf_vector":"1"}},{"base_weights":[2.7576836E1,3.4805168E3,-2.07551E3,2.1832925E3,9.272151E3,-4.0562068E3,-1.1247266E3,5.255067E3,7.935719E2,1.5302498E4,5.7960034E3,-3.3593337E3,-4.441178E3,-1.2273257E3,1.27859375E4,4.939123E3,5.143181E3,4.3266177E2,5.8959824E3,-2.4138005E2,1.7361893E4,5.3480845E3,1.7432069E3,-3.3999438E3,3.8526285E2,-4.464386E3,5.839945E2,-1.4170968E3,5.396646E3,1.1939408E3,1.5308403E2,4.6352056E3,2.3533047E3,3.1199628E2,1.5047705E3,4.865748E3,2.0037942E3,3.138266E3,-2.024208E3,2.117075E4,1.3183208E4,4.8487266E3,1.3294125E3,-5.200283E2,-3.5332678E3,-4.476557E3,1.212318E2,-2.891228E2,4.7315625E2,-3.600848E1,-2.0700422E3,7.0599725E2,4.3974546E3,4.343931E3,2.2303494E3,2.4600665E2,1.3044012E3,-1.20585E3,5.836974E3,3.9597916E2,-7.2441406E0,4.45542E1,-2.1677663E2,2.2514521E4,4.1071265E2,1.3972838E4,-1.408718E2,4.57443E3,1.619117E3,-9.2607135E2,2.1578369E2,-3.5685696E3,2.9638177E2,-4.4878853E3,-2.6384937E2,-7.645376E2,2.074731E3,-1.6124866E3,-3.111978E3,4.6377686E3,1.4362914E2,3.8563745E3,1.6691344E4,1.5289684E2,9.1937006E2,6.26309E2,-2.693766E3,6.2086777E3,-1.1065436E3,-3.2784115E1,3.1854816E1,4.209557E1,-3.6689064E1,1.797696E4,3.0542246E4,1.4780459E4,-8.2277655E2,3.5618594E3,6.8861553E3,-1.349502E3,2.0081038E2,-3.6037754E3,2.9317352E2,-4.505979E3,-1.27495384E2,1.1977588E1,-4.3699512E1,-8.278221E2,9.870242E2,1.7306389E3,1.2330513E3,-1.6841196E3,2.912529E2,-3.1620105E3,4.1471978E3,4.218464E2,7.384729E1,3.360445E2,1.9464819E3,5.0574426E2,1.9991935E3,3.6217705E1,-2.3307092E2,1.4183502E2,-7.8605095E1,-2.850063E2,-6.796532E1,5.755047E2,-1.5372736E2,-8.677969E0,-1.1793268E2,1.6691179E3,-1.26119064E2,2.9240515E3,-1.8334923E1,1.3993861E3,5.13449E1,2.5785353E0,-9.454127E1,2.7860513E2,1.1701042E3,6.4654297E2,-1.2539866E2,-1.5592508E2,3.0500597E1,-3.3830554E2,-1.3931209E2,-4.0727386E2,-1.5529048E2,-8.261581E1,6.6414044E2,1.4229927E2,8.5935266E2,-1.5715833E2,3.1315082E2,-2.880011E2,4.2380453E2,4.818523E1,4.4941855E2],"categories":[],"categories_nodes":[],"categories_segments":[],"categories_sizes":[],"default_left":[0,0,0,0,0,0,0,0,0,0,0,0,0,0,0,0,0,0,0,0,0,0,0,0,0,0,0,0,0,0,0,0,0,0,0,0,0,0,0,0,0,0,0,0,0,0,0,0,0,0,0,0,0,0,0,0,0,0,0,0,0,0,0,0,0,0,0,0,0,0,0,0,0,0,0,0,0,0,0,0,0,0,0,0,0,0,0,0,0,0,0,0,0,0,0,0,0,0,0,0,0,0,0,0,0,0,0,0,0,0,0,0,0,0,0,0,0,0,0,0,0,0,0,0,0,0,0,0,0,0,0,0,0,0,0,0,0,0,0,0,0,0,0,0,0,0,0,0,0,0,0,0,0,0,0,0,0,0,0],"id":4,"left_children":[1,3,5,7,9,11,13,15,17,19,21,23,25,27,29,31,-1,33,35,37,39,41,-1,43,-1,45,47,49,51,-1,-1,53,-1,55,-1,57,-1,59,61,63,65,67,-1,69,71,73,-1,-1,-1,75,77,-1,79,81,-1,83,-1,85,87,-1,89,91,-1,93,-1,95,-1,97,-1,99,-1,101,-1,103,105,107,109,111,113,115,-1,117,119,121,-1,123,125,127,129,-1,-1,-1,-1,131,133,135,137,139,141,143,-1,145,-1,147,-1,-1,-1,149,-1,151,-1,153,-1,155,157,-1,-1,-1,-1,-1,-1,-1,-1,-1,-1,-1,-1,-1,-1,-1,-1,-1,-1,-1,-1,-1,-1,-1,-1,-1,-1,-1,-1,-1,-1,-1,-1,-1,-1,-1,-1,-1,-1,-1,-1,-1,-1,-1,-1],"loss_changes":[3.9693107E10,1.5503985E10,6.388144E9,7.2189076E9,7.746349E9,2.6551706E8,3.3111183E9,8.0754033E9,2.1457708E9,4.3939185E9,1.2701158E9,1.5321088E8,8.720794E7,2.8851054E9,4.5307904E7,3.1479767E9,0E0,2.1375846E9,1.0817528E9,1.2115868E8,1.3675766E9,9.766349E8,0E0,1.4951834E8,0E0,6.1577216E7,1.224921E8,2.0026906E9,8.751501E7,0E0,0E0,2.841945E9,0E0,1.0100781E9,0E0,4.563534E8,0E0,2.7849E7,1.0557948E7,1.133439E9,7.774536E8,6.608312E8,0E0,2.8131372E7,1.1531878E8,3.0980096E7,0E0,0E0,0E0,1.1026505E9,7.0888346E8,0E0,1.8847744E7,2.977575E9,0E0,1.0030591E9,0E0,3.6091576E7,1.8151117E8,0E0,7.7368906E5,1.1469205E6,0E0,9.052344E8,0E0,7.413043E8,0E0,4.822825E8,0E0,3.1421352E7,0E0,1.1479962E8,0E0,2.5956352E7,4.8194512E5,4.1384698E8,6.886135E8,3.762798E8,1.925673E8,7.85088E5,0E0,9.251671E8,9.1192576E8,7.384219E8,0E0,1.2723405E7,1.627596E6,1.1306112E8,7.739035E5,0E0,0E0,0E0,0E0,4.9290035E8,1.0310748E9,6.045051E8,1.031508E6,6.3244416E8,1.8514688E8,1.281684E7,0E0,1.0925978E8,0E0,2.14784E7,0E0,0E0,0E0,4.0706688E8,0E0,1.8137811E8,0E0,3.449052E8,0E0,1.6652902E8,6.869224E6,0E0,0E0,0E0,0E0,0E0,0E0,0E0,0E0,0E0,0E0,0E0,0E0,0E0,0E0,0E0,0E0,0E0,0E0,0E0,0E0,0E0,0E0,0E0,0E0,0E0,0E0,0E0,0E0,0E0,0E0,0E0,0E0,0E0,0E0,0E0,0E0,0E0,0E0,0E0,0E0,0E0,0E0,0E0,0E0],"parents":[2147483647,0,0,1,1,2,2,3,3,4,4,5,5,6,6,7,7,8,8,9,9,10,10,11,11,12,12,13,13,14,14,15,15,17,17,18,18,19,19,20,20,21,21,23,23,25,25,26,26,27,27,28,28,31,31,33,33,35,35,37,37,38,38,39,39,40,40,41,41,43,43,44,44,45,45,49,49,50,50,52,52,53,53,55,55,57,57,58,58,60,60,61,61,63,63,65,65,67,67,69,69,71,71,73,73,74,74,75,75,76,76,77,77,78,78,79,79,81,81,82,82,83,83,85,85,86,86,87,87,88,88,93,93,94,94,95,95,96,96,97,97,98,98,99,99,101,101,103,103,107,107,109,109,111,111,113,113,114,114],"right_children":[2,4,6,8,10,12,14,16,18,20,22,24,26,28,30,32,-1,34,36,38,40,42,-1,44,-1,46,48,50,52,-1,-1,54,-1,56,-1,58,-1,60,62,64,66,68,-1,70,72,74,-1,-1,-1,76,78,-1,80,82,-1,84,-1,86,88,-1,90,92,-1,94,-1,96,-1,98,-1,100,-1,102,-1,104,106,108,110,112,114,116,-1,118,120,122,-1,124,126,128,130,-1,-1,-1,-1,132,134,136,138,140,142,144,-1,146,-1,148,-1,-1,-1,150,-1,152,-1,154,-1,156,158,-1,-1,-1,-1,-1,-1,-1,-1,-1,-1,-1,-1,-1,-1,-1,-1,-1,-1,-1,-1,-1,-1,-1,-1,-1,-1,-1,-1,-1,-1,-1,-1,-1,-1,-1,-1,-1,-1,-1,-1,-1,-1,-1,-1],"split_conditions":[-2.1935374E-1,1E0,3E0,-1.1252878E0,-9.44101E-1,8.6776716E-1,1E0,1E0,1E0,3E0,1E0,1E0,1E0,1E0,1.7737013E0,1E0,5.143181E3,1E0,1E0,2E0,-1.3064747E0,1E0,1.7432069E3,1E0,3.8526285E2,1E0,1E0,1.430199E-1,-3.8166914E-2,1.1939408E3,1.5308403E2,1E0,2.3533047E3,1E0,1.5047705E3,3E0,2.0037942E3,-1.3064747E0,-1.8500351E0,1E0,1E0,1E0,1.3294125E3,1E0,1E0,1E0,1.212318E2,-2.891228E2,4.7315625E2,1E0,8.6776716E-1,7.0599725E2,6.8658036E-1,1E0,2.2303494E3,1E0,1.3044012E3,2E0,1E0,3.9597916E2,-1.1252878E0,1E0,-2.1677663E2,1E0,4.1071265E2,1E0,-1.408718E2,1E0,1.619117E3,1E0,2.1578369E2,1E0,2.9638177E2,1E0,2.6796353E0,1E0,1E0,1E0,2.8608222E0,1E0,1.4362914E2,1E0,1E0,1E0,9.1937006E2,-5.817274E-1,1E0,1E0,1E0,-3.2784115E1,3.1854816E1,4.209557E1,-3.6689064E1,1E0,1E0,1E0,1E0,1E0,1E0,1E0,2.0081038E2,1E0,2.9317352E2,4.853877E0,-1.27495384E2,1.1977588E1,-4.3699512E1,1E0,9.870242E2,1E0,1.2330513E3,1E0,2.912529E2,1E0,3.4043827E0,4.218464E2,7.384729E1,3.360445E2,1.9464819E3,5.0574426E2,1.9991935E3,3.6217705E1,-2.3307092E2,1.4183502E2,-7.8605095E1,-2.850063E2,-6.796532E1,5.755047E2,-1.5372736E2,-8.677969E0,-1.1793268E2,1.6691179E3,-1.26119064E2,2.9240515E3,-1.8334923E1,1.3993861E3,5.13449E1,2.5785353E0,-9.454127E1,2.7860513E2,1.1701042E3,6.4654297E2,-1.2539866E2,-1.5592508E2,3.0500597E1,-3.3830554E2,-1.3931209E2,-4.0727386E2,-1.5529048E2,-8.261581E1,6.6414044E2,1.4229927E2,8.5935266E2,-1.5715833E2,3.1315082E2,-2.880011E2,4.2380453E2,4.818523E1,4.4941855E2],"split_indices":[1,559,583,1,1,1,317,571,554,583,224,354,27,214,1,346,0,434,318,583,1,212,0,583,0,315,581,1,1,0,0,44,0,36,0,583,0,1,1,495,391,317,0,349,479,487,0,0,0,559,1,0,1,554,0,346,0,583,391,0,1,414,0,567,0,201,0,581,0,214,0,37,0,360,1,55,224,292,1,582,0,347,567,555,0,1,106,130,567,0,0,0,0,579,182,239,567,432,402,581,0,106,0,1,0,0,0,351,0,318,0,465,0,431,1,0,0,0,0,0,0,0,0,0,0,0,0,0,0,0,0,0,0,0,0,0,0,0,0,0,0,0,0,0,0,0,0,0,0,0,0,0,0,0,0,0,0,0,0],"split_type":[0,0,0,0,0,0,0,0,0,0,0,0,0,0,0,0,0,0,0,0,0,0,0,0,0,0,0,0,0,0,0,0,0,0,0,0,0,0,0,0,0,0,0,0,0,0,0,0,0,0,0,0,0,0,0,0,0,0,0,0,0,0,0,0,0,0,0,0,0,0,0,0,0,0,0,0,0,0,0,0,0,0,0,0,0,0,0,0,0,0,0,0,0,0,0,0,0,0,0,0,0,0,0,0,0,0,0,0,0,0,0,0,0,0,0,0,0,0,0,0,0,0,0,0,0,0,0,0,0,0,0,0,0,0,0,0,0,0,0,0,0,0,0,0,0,0,0,0,0,0,0,0,0,0,0,0,0,0,0],"sum_hessian":[5.462E3,2.067E3,3.395E3,1.691E3,3.76E2,1.099E3,2.296E3,5.25E2,1.166E3,1.35E2,2.41E2,3.98E2,7.01E2,2.281E3,1.5E1,5.24E2,1E0,1.091E3,7.5E1,1.6E1,1.19E2,2.36E2,5E0,3.97E2,1E0,6.98E2,3E0,2.219E3,6.2E1,1.4E1,1E0,5.19E2,5E0,1.085E3,6E0,7.3E1,2E0,5E0,1.1E1,5.8E1,6.1E1,2.27E2,9E0,1.8E1,3.79E2,6.97E2,1E0,2E0,1E0,7.13E2,1.506E3,1.4E1,4.8E1,5.14E2,5E0,1.082E3,3E0,1E1,6.3E1,3E0,2E0,2E0,9E0,5.3E1,5E0,5.8E1,3E0,2.25E2,2E0,1.7E1,1E0,3.78E2,1E0,6.95E2,2E0,5.31E2,1.82E2,1.05E3,4.56E2,4.3E1,5E0,4.97E2,1.7E1,1.074E3,8E0,5E0,5E0,6E1,3E0,1E0,1E0,1E0,1E0,3.8E1,1.5E1,5.5E1,3E0,1.6E2,6.5E1,1.6E1,1E0,3.77E2,1E0,6.9E2,5E0,1E0,1E0,5.3E2,1E0,1.79E2,3E0,1.036E3,1.4E1,4.54E2,2E0,4.2E1,1E0,4.96E2,1E0,7E0,1E1,9.86E2,8.8E1,3E0,2E0,3E0,2E0,5.9E1,1E0,1E0,2E0,3.7E1,1E0,1.4E1,1E0,5.2E1,3E0,1E0,2E0,1.55E2,5E0,6.3E1,2E0,1.3E1,3E0,3.49E2,2.8E1,6.84E2,6E0,5.26E2,4E0,1.78E2,1E0,1.025E3,1.1E1,4.53E2,1E0,1E0,1E0],"tree_param":{"num_deleted":"0","num_feature":"584","num_nodes":"159","size_leaf_vector":"1"}},{"base_weights":[2.507693E1,3.2517368E3,-1.8862349E3,6.4107314E3,1.5080405E3,-8.827985E2,-3.2882815E3,1.1592967E4,3.5043115E3,5.6164595E3,9.2308044E2,-6.110626E2,-3.453668E3,-2.6240574E3,-3.8513237E3,1.3237514E4,1.2885864E3,4.4870884E3,-1.9363605E3,7.5390166E3,1.7428871E3,8.509444E2,1.3029479E3,-6.634528E2,1.1852759E3,-3.4878328E3,9.2095024E1,-2.3699414E3,-3.7421814E2,-3.8751072E3,4.3593597E2,1.8993525E4,1.0697677E4,5.262391E3,-1.7605378E3,4.212008E3,2.193138E3,-2.2657441E3,6.5331775E2,8.237868E3,5.1682086E2,-1.251371E3,3.4291008E3,2.3552073E3,2.9462967E2,-7.065094E2,1.3707964E3,-3.5222664E3,9.1575645E1,-2.0744277E3,-3.2637927E2,-3.8991077E3,1.2335763E2,2.023096E4,-1.2414307E2,1.1258966E4,-2.5031723E2,7.386714E3,-1.094105E3,-2.0032668E3,1.07325035E2,3.7658276E3,1.4206051E3,-2.4602327E3,6.933753E2,8.642504E3,-2.5433006E2,1.6204642E3,-1.1266439E3,-6.195513E2,-2.836204E2,3.8405217E3,-1.6963959E2,2.1810017E3,1.0929408E3,2.1597932E2,1.206483E3,-1.2057001E3,1.728135E2,-3.6956948E3,-1.8737117E2,-2.13235E3,3.1250054E3,-3.9356665E3,-1.1646208E3,2.0864602E4,6.103677E2,4.8272808E1,-6.507712E1,1.2125499E4,3.364436E3,5.4473804E2,8.531484E3,-1.2866122E2,1.7436476E1,-2.4146938E3,-1.00896645E2,3.4485928E3,1.2454283E3,-2.584442E3,1.7579324E2,3.6644533E0,7.2649864E1,6.629253E3,1.1494431E4,-3.1027735E1,1.999996E3,-1.2094916E2,-1.1539747E0,5.1822754E2,-1.5414318E3,5.012966E3,7.5767633E2,1.1072938E3,3.7779075E3,1.4003418E2,9.6642004E2,-6.786541E2,-2.1531335E3,7.242634E1,1.1073809E4,-3.7328018E3,7.386167E1,-2.1839502E3,2.559908E3,3.3492012E1,3.173694E2,-3.7274312E3,-4.04268E2,3.804502E2,-1.9360859E3,1.9653164E3,4.3515973E2,1.088925E2,-3.558838E1,1.1391171E3,-1.2909705E2,9.809175E2,3.6374596E1,-4.8042484E1,1.13471054E2,8.48951E2,-1.4386465E1,5.078379E0,-2.3101291E2,-1.1771947E1,1.3985157E0,2.7942572E2,1.1243824E3,-2.4333781E2,1.5864388E2,9.012555E2,2.8353812E2,5.8305524E2,1.4462286E3,-3.7171876E-1,2.1021544E2,9.122944E1,-1.1816004E2,-1.5943575E2,2.2719963E1,5.1139163E2,-1.2066333E2,-4.986424E1,4.5565903E2,1.7821672E1,1.8745811E2,3.8851288E2,-3.2893036E1,3.2114553E0,6.0737946E2,-6.889175E1,4.7418295E2,-2.004226E2,4.2822275E2,-6.0995374E0,4.5373984E2,1.9458446E3,2.8428646E1,-3.4394904E2,-1.4239326E2,-1.9958716E2,4.012911E2,3.5348675E1,2.5522487E2,-3.366916E2,1.1759485E2,7.715747E1,-6.0054745E1,-1.9823569E2,5.825259E0],"categories":[],"categories_nodes":[],"categories_segments":[],"categories_sizes":[],"default_left":[0,0,0,0,0,0,0,0,0,0,0,0,0,0,0,0,0,0,0,0,0,0,0,0,0,0,0,0,0,0,0,0,0,0,0,0,0,0,0,0,0,0,0,0,0,0,0,0,0,0,0,0,0,0,0,0,0,0,0,0,0,0,0,0,0,0,0,0,0,0,0,0,0,0,0,0,0,0,0,0,0,0,0,0,0,0,0,0,0,0,0,0,0,0,0,0,0,0,0,0,0,0,0,0,0,0,0,0,0,0,0,0,0,0,0,0,0,0,0,0,0,0,0,0,0,0,0,0,0,0,0,0,0,0,0,0,0,0,0,0,0,0,0,0,0,0,0,0,0,0,0,0,0,0,0,0,0,0,0,0,0,0,0,0,0,0,0,0,0,0,0,0,0,0,0,0,0,0,0,0,0,0,0,0,0,0,0,0,0,0,0],"id":5,"left_children":[1,3,5,7,9,11,13,15,17,19,21,23,25,27,29,31,33,35,37,39,41,43,-1,45,-1,47,-1,49,-1,51,-1,53,55,57,59,61,-1,63,-1,65,67,69,71,73,75,77,-1,79,-1,81,-1,83,-1,85,87,89,-1,91,93,95,-1,97,-1,99,101,103,-1,105,107,109,-1,111,-1,113,-1,115,-1,117,119,121,-1,123,125,127,129,131,133,-1,-1,135,137,139,141,-1,-1,143,145,147,-1,149,-1,-1,-1,151,153,-1,155,-1,-1,157,159,161,163,165,167,169,-1,171,173,175,177,179,-1,181,183,-1,-1,185,-1,187,189,-1,-1,-1,-1,-1,-1,-1,-1,-1,-1,-1,-1,-1,-1,-1,-1,-1,-1,-1,-1,-1,-1,-1,-1,-1,-1,-1,-1,-1,-1,-1,-1,-1,-1,-1,-1,-1,-1,-1,-1,-1,-1,-1,-1,-1,-1,-1,-1,-1,-1,-1,-1,-1,-1,-1,-1,-1,-1,-1,-1],"loss_changes":[3.386994E10,1.1234165E10,4.846463E9,1.0853548E10,3.159519E9,1.4020477E9,5.1756646E8,4.3718287E9,2.519763E9,1.1950372E9,1.1065766E9,1.3336174E9,3.6510464E7,2.3988173E8,1.9760026E8,2.8682977E9,4.78968E8,1.9658209E9,2.53989E8,5.2638208E8,2.9637715E8,9.634876E8,0E0,1.2656666E9,0E0,3.6803584E7,0E0,1.988183E8,0E0,1.0801562E8,0E0,1.5664148E9,1.2731433E9,2.4573152E8,2.1265536E7,1.9154647E9,0E0,4.485235E7,0E0,4.9206016E8,2.5417946E7,2.2497224E7,9.537434E7,4.7732493E8,8.644846E8,7.971127E8,0E0,3.2062464E7,0E0,1.55173E8,0E0,6.779802E7,0E0,7.452979E8,3.149652E6,9.7187226E8,0E0,9.250931E7,3.14855E6,1.6726808E7,0E0,1.1251159E9,0E0,4.737472E7,3.78384E5,3.987625E8,0E0,7.349216E6,1.4145955E6,2.15287E7,0E0,1.1889834E8,0E0,5.1972378E8,0E0,6.690109E8,0E0,5.753087E8,7.195306E8,3.412019E7,0E0,1.2425126E8,3.996384E6,5.4406144E7,1.6971868E7,7.2385536E8,3.3705862E6,0E0,0E0,1.03064166E9,3.9265053E8,4.436656E6,8.920314E7,0E0,0E0,7.06084E6,2.518602E4,1.0824535E9,0E0,4.4284384E7,0E0,0E0,0E0,6.551391E8,6.407982E8,0E0,4.733892E6,0E0,0E0,1.1733003E7,5.437462E6,1.2153581E8,7.338597E7,1.6505176E8,2.7780736E8,5.767159E8,0E0,3.9372426E8,2.3178957E8,4.5700992E8,6.6706086E8,1.9618048E7,0E0,1.2337152E8,1.353724E6,0E0,0E0,4.835635E7,0E0,4.142174E6,5.08894E6,0E0,0E0,0E0,0E0,0E0,0E0,0E0,0E0,0E0,0E0,0E0,0E0,0E0,0E0,0E0,0E0,0E0,0E0,0E0,0E0,0E0,0E0,0E0,0E0,0E0,0E0,0E0,0E0,0E0,0E0,0E0,0E0,0E0,0E0,0E0,0E0,0E0,0E0,0E0,0E0,0E0,0E0,0E0,0E0,0E0,0E0,0E0,0E0,0E0,0E0,0E0,0E0,0E0,0E0,0E0,0E0,0E0,0E0,0E0,0E0],"parents":[2147483647,0,0,1,1,2,2,3,3,4,4,5,5,6,6,7,7,8,8,9,9,10,10,11,11,12,12,13,13,14,14,15,15,16,16,17,17,18,18,19,19,20,20,21,21,23,23,25,25,27,27,29,29,31,31,32,32,33,33,34,34,35,35,37,37,39,39,40,40,41,41,42,42,43,43,44,44,45,45,47,47,49,49,51,51,53,53,54,54,55,55,57,57,58,58,59,59,61,61,63,63,64,64,65,65,67,67,68,68,69,69,71,71,73,73,75,75,77,77,78,78,79,79,81,81,82,82,83,83,84,84,85,85,86,86,89,89,90,90,91,91,92,92,95,95,96,96,97,97,99,99,103,103,104,104,106,106,109,109,110,110,111,111,112,112,113,113,114,114,115,115,117,117,118,118,119,119,120,120,121,121,123,123,124,124,127,127,129,129,130,130],"right_children":[2,4,6,8,10,12,14,16,18,20,22,24,26,28,30,32,34,36,38,40,42,44,-1,46,-1,48,-1,50,-1,52,-1,54,56,58,60,62,-1,64,-1,66,68,70,72,74,76,78,-1,80,-1,82,-1,84,-1,86,88,90,-1,92,94,96,-1,98,-1,100,102,104,-1,106,108,110,-1,112,-1,114,-1,116,-1,118,120,122,-1,124,126,128,130,132,134,-1,-1,136,138,140,142,-1,-1,144,146,148,-1,150,-1,-1,-1,152,154,-1,156,-1,-1,158,160,162,164,166,168,170,-1,172,174,176,178,180,-1,182,184,-1,-1,186,-1,188,190,-1,-1,-1,-1,-1,-1,-1,-1,-1,-1,-1,-1,-1,-1,-1,-1,-1,-1,-1,-1,-1,-1,-1,-1,-1,-1,-1,-1,-1,-1,-1,-1,-1,-1,-1,-1,-1,-1,-1,-1,-1,-1,-1,-1,-1,-1,-1,-1,-1,-1,-1,-1,-1,-1,-1,-1,-1,-1,-1,-1],"split_conditions":[-2.1935374E-1,1E0,6.8658036E-1,-9.44101E-1,-1.3549472E0,1E0,1.2301408E0,1E0,1E0,-1.3064747E0,1E0,1E0,1E0,1E0,1E0,-1.4693395E0,-1.1819218E0,1E0,1E0,1E0,-1.5843065E0,-1.1252878E0,1.3029479E3,1E0,1.1852759E3,1E0,9.2095024E1,1E0,-3.7421814E2,1E0,4.3593597E2,1E0,1E0,-1.3064747E0,1E0,1E0,2.193138E3,1E0,6.5331775E2,1E0,-1.4876615E0,1E0,1E0,1E0,1E0,1E0,1.3707964E3,1E0,9.1575645E1,1E0,-3.2637927E2,1E0,1.2335763E2,1E0,-2.001062E0,1E0,-2.5031723E2,-2.001062E0,1E0,1E0,1.07325035E2,1E0,1.4206051E3,1E0,-4.4900712E-1,1E0,-2.5433006E2,-1.8500351E0,1E0,-1.6992735E0,-2.836204E2,-7.629142E-1,-1.6963959E2,1E0,1.0929408E3,1E0,1.206483E3,1E0,1E0,1E0,-1.8737117E2,1E0,1E0,1E0,2.5947717E-1,1E0,-2.0441747E0,4.8272808E1,-6.507712E1,1E0,-1.282518E0,-2.0441747E0,1E0,-1.2866122E2,1.7436476E1,-1.1244384E0,1E0,1E0,1.2454283E3,1E0,1.7579324E2,3.6644533E0,7.2649864E1,-1.6561608E0,-1.4876615E0,-3.1027735E1,-2.0441747E0,-1.2094916E2,-1.1539747E0,1E0,1E0,1E0,1E0,1E0,1E0,1E0,9.6642004E2,1E0,1E0,1E0,-1.9004657E0,1E0,7.386167E1,1E0,5.3973608E-2,3.3492012E1,3.173694E2,1E0,-4.04268E2,1E0,1E0,1.9653164E3,4.3515973E2,1.088925E2,-3.558838E1,1.1391171E3,-1.2909705E2,9.809175E2,3.6374596E1,-4.8042484E1,1.13471054E2,8.48951E2,-1.4386465E1,5.078379E0,-2.3101291E2,-1.1771947E1,1.3985157E0,2.7942572E2,1.1243824E3,-2.4333781E2,1.5864388E2,9.012555E2,2.8353812E2,5.8305524E2,1.4462286E3,-3.7171876E-1,2.1021544E2,9.122944E1,-1.1816004E2,-1.5943575E2,2.2719963E1,5.1139163E2,-1.2066333E2,-4.986424E1,4.5565903E2,1.7821672E1,1.8745811E2,3.8851288E2,-3.2893036E1,3.2114553E0,6.0737946E2,-6.889175E1,4.7418295E2,-2.004226E2,4.2822275E2,-6.0995374E0,4.5373984E2,1.9458446E3,2.8428646E1,-3.4394904E2,-1.4239326E2,-1.9958716E2,4.012911E2,3.5348675E1,2.5522487E2,-3.366916E2,1.1759485E2,7.715747E1,-6.0054745E1,-1.9823569E2,5.825259E0],"split_indices":[1,560,1,1,0,555,1,555,555,1,434,486,432,418,108,0,0,318,434,100,0,1,0,318,0,495,0,428,0,223,0,416,414,1,363,486,0,494,0,99,1,513,99,307,36,567,0,268,0,223,0,340,0,414,0,573,0,0,579,147,0,212,0,207,0,567,0,1,567,0,0,1,0,567,0,211,0,560,279,50,0,488,567,418,0,495,0,0,0,391,0,0,57,0,0,0,576,488,0,363,0,0,0,0,1,0,0,0,0,382,474,143,307,581,100,349,0,488,341,349,0,270,0,318,0,0,0,315,0,581,581,0,0,0,0,0,0,0,0,0,0,0,0,0,0,0,0,0,0,0,0,0,0,0,0,0,0,0,0,0,0,0,0,0,0,0,0,0,0,0,0,0,0,0,0,0,0,0,0,0,0,0,0,0,0,0,0,0,0,0,0],"split_type":[0,0,0,0,0,0,0,0,0,0,0,0,0,0,0,0,0,0,0,0,0,0,0,0,0,0,0,0,0,0,0,0,0,0,0,0,0,0,0,0,0,0,0,0,0,0,0,0,0,0,0,0,0,0,0,0,0,0,0,0,0,0,0,0,0,0,0,0,0,0,0,0,0,0,0,0,0,0,0,0,0,0,0,0,0,0,0,0,0,0,0,0,0,0,0,0,0,0,0,0,0,0,0,0,0,0,0,0,0,0,0,0,0,0,0,0,0,0,0,0,0,0,0,0,0,0,0,0,0,0,0,0,0,0,0,0,0,0,0,0,0,0,0,0,0,0,0,0,0,0,0,0,0,0,0,0,0,0,0,0,0,0,0,0,0,0,0,0,0,0,0,0,0,0,0,0,0,0,0,0,0,0,0,0,0,0,0,0,0,0,0],"sum_hessian":[5.488E3,2.041E3,3.447E3,7.24E2,1.317E3,2.011E3,1.436E3,2.58E2,4.66E2,1.62E2,1.155E3,1.821E3,1.9E2,6.64E2,7.72E2,2.22E2,3.6E1,3.95E2,7.1E1,1.07E2,5.5E1,1.151E3,4E0,1.816E3,5E0,1.89E2,1E0,5.74E2,9E1,7.71E2,1E0,6.4E1,1.58E2,1.5E1,2.1E1,3.92E2,3E0,7E1,1E0,9.7E1,1E1,2E1,3.5E1,3.09E2,8.42E2,1.813E3,3E0,1.88E2,1E0,4.69E2,1.05E2,7.68E2,3E0,6E1,4E0,1.52E2,6E0,1.1E1,4E0,2E1,1E0,3.8E2,1.2E1,6.6E1,4E0,9.4E1,3E0,6E0,4E0,1.7E1,3E0,3.3E1,2E0,3.06E2,3E0,8.39E2,3E0,1.156E3,6.57E2,1.65E2,2.3E1,4.65E2,4E0,7.57E2,1.1E1,5.8E1,2E0,2E0,2E0,1.36E2,1.6E1,2E0,9E0,3E0,1E0,1.6E1,4E0,3.71E2,9E0,6.5E1,1E0,1E0,3E0,5.9E1,3.5E1,1E0,5E0,3E0,1E0,8E0,9E0,2.3E1,1E1,1.85E2,1.21E2,8.35E2,4E0,7.45E2,4.11E2,6.53E2,4E0,1.64E2,1E0,4.61E2,4E0,1E0,3E0,5.62E2,1.95E2,4E0,7E0,5.4E1,4E0,1E0,1E0,1.31E2,5E0,3E0,1.3E1,1E0,1E0,8E0,1E0,1E0,1.5E1,3E0,1E0,3.6E2,1.1E1,6.4E1,1E0,2.8E1,3.1E1,1.9E1,1.6E1,1E0,4E0,7E0,1E0,8E0,1E0,2.1E1,2E0,9E0,1E0,9.7E1,8.8E1,1.07E2,1.4E1,8.24E2,1.1E1,7.36E2,9E0,4.08E2,3E0,6.37E2,1.6E1,1E0,3E0,1.56E2,8E0,4.6E2,1E0,1E0,3E0,5.61E2,1E0,3E0,1E0,6E0,1E0],"tree_param":{"num_deleted":"0","num_feature":"584","num_nodes":"191","size_leaf_vector":"1"}},{"base_weights":[8.196238E1,4.503374E3,-1.1541245E3,9.855872E3,2.375596E3,-3.3069153E3,-3.0391757E2,9.152218E3,3.655259E3,2.0540774E3,2.2933402E4,-6.867902E1,-3.3863809E3,-4.026374E2,1.3285264E3,8.68621E3,4.9299263E3,1.9111227E3,2.8070974E3,2.2825386E3,4.3099402E2,1.842704E3,-6.749073E2,-3.4072976E3,6.381761E2,6.9504205E2,-1.4491398E3,1.0081267E4,-2.3180743E2,6.785804E3,1.3616191E3,2.4894492E3,-8.047539E1,-9.749145E2,1.9569798E2,-3.4261606E3,3.4616586E2,5.972727E2,1.6769525E3,-1.5409564E3,9.586673E2,6.699187E2,1.1506425E4,-9.6661847E2,1.0070251E3,-2.8542725E2,7.4874404E3,1.2626719E3,1.2052134E3,-6.0278847E1,3.2395732E3,-1.2999529E3,1.9496904E2,-3.4472888E3,2.614304E2,4.3788824E2,7.7919507E3,-1.6856101E3,3.7330203E3,-4.0013953E2,9.450912E2,2.2490434E4,9.628751E3,3.2335495E2,-1.4518748E3,6.782354E3,1.5743164E3,1.1529132E3,1.0128414E4,3.3524854E2,2.4315645E1,-1.6212009E3,9.324688E1,-3.516569E3,-1.5081558E3,3.8286075E2,1.8149324E3,7.948851E2,4.1276407E2,-1.7278542E3,1.0548558E3,3.546835E2,1.5672185E3,-8.1211075E1,5.453842E2,2.1706006E3,2.7709448E2,9.495655E2,3.2751822E2,-1.559289E2,1.9353738E2,5.5639087E2,1.5899501E3,9.8371765E1,1.3803392E3,1.0858239E3,3.3777847E2,-1.6966397E2,1.0967646E2,-3.1753928E2,2.8955707E2,-1.5214326E2,1.887561E1,2.389153E1,8.2771515E2,-1.0966852E2,-2.2055241E2,1.7636607E2,-2.355624E1],"categories":[],"categories_nodes":[],"categories_segments":[],"categories_sizes":[],"default_left":[0,0,0,0,0,0,0,0,0,0,0,0,0,0,0,0,0,0,0,0,0,0,0,0,0,0,0,0,0,0,0,0,0,0,0,0,0,0,0,0,0,0,0,0,0,0,0,0,0,0,0,0,0,0,0,0,0,0,0,0,0,0,0,0,0,0,0,0,0,0,0,0,0,0,0,0,0,0,0,0,0,0,0,0,0,0,0,0,0,0,0,0,0,0,0,0,0,0,0,0,0,0,0,0,0,0,0,0,0],"id":6,"left_children":[1,3,5,7,9,11,13,15,-1,17,19,21,23,25,-1,27,-1,29,-1,-1,-1,31,33,35,-1,37,39,41,43,45,47,49,-1,51,-1,53,-1,55,-1,57,-1,59,61,63,-1,-1,65,67,-1,-1,69,71,-1,73,-1,75,77,79,81,83,-1,85,87,-1,89,91,-1,93,95,-1,-1,97,-1,99,101,103,-1,-1,-1,105,-1,-1,107,-1,-1,-1,-1,-1,-1,-1,-1,-1,-1,-1,-1,-1,-1,-1,-1,-1,-1,-1,-1,-1,-1,-1,-1,-1,-1],"loss_changes":[2.9867057E10,1.3551526E10,7.8152694E9,6.593489E9,5.5702625E9,3.106386E8,4.56878E9,6.1496033E9,0E0,3.404402E9,3.297838E8,3.840574E7,3.0691123E8,3.50103E9,0E0,4.1475932E9,0E0,2.2422884E9,0E0,0E0,0E0,1.8615664E7,2.5607832E7,1.8767155E8,0E0,2.5873037E9,1.7660826E9,3.8474015E9,4.1604698E8,6.413399E8,8.719716E8,2.093326E7,0E0,3.0135042E7,0E0,1.7746432E8,0E0,1.6925984E9,0E0,1.1950764E9,0E0,4.2921766E8,4.7229235E9,1.1220349E8,0E0,0E0,3.2702157E8,7.1325376E8,0E0,0E0,6.627496E6,2.062078E7,0E0,1.4710272E8,0E0,1.5607854E9,2.5656704E7,8.956493E8,6.548352E6,1.3420656E8,0E0,9.5706726E8,1.1215258E9,0E0,5.092568E7,2.91082E8,0E0,6.0359744E8,2.0508864E7,0E0,0E0,2.0337216E7,0E0,1.1146957E8,1.4493424E7,1.4954926E9,0E0,0E0,0E0,5.487416E8,0E0,0E0,6.053032E6,0E0,0E0,0E0,0E0,0E0,0E0,0E0,0E0,0E0,0E0,0E0,0E0,0E0,0E0,0E0,0E0,0E0,0E0,0E0,0E0,0E0,0E0,0E0,0E0,0E0,0E0],"parents":[2147483647,0,0,1,1,2,2,3,3,4,4,5,5,6,6,7,7,9,9,10,10,11,11,12,12,13,13,15,15,17,17,21,21,22,22,23,23,25,25,26,26,27,27,28,28,29,29,30,30,31,31,33,33,35,35,37,37,39,39,41,41,42,42,43,43,46,46,47,47,50,50,51,51,53,53,55,55,56,56,57,57,58,58,59,59,61,61,62,62,64,64,65,65,67,67,68,68,71,71,73,73,74,74,75,75,79,79,82,82],"right_children":[2,4,6,8,10,12,14,16,-1,18,20,22,24,26,-1,28,-1,30,-1,-1,-1,32,34,36,-1,38,40,42,44,46,48,50,-1,52,-1,54,-1,56,-1,58,-1,60,62,64,-1,-1,66,68,-1,-1,70,72,-1,74,-1,76,78,80,82,84,-1,86,88,-1,90,92,-1,94,96,-1,-1,98,-1,100,102,104,-1,-1,-1,106,-1,-1,108,-1,-1,-1,-1,-1,-1,-1,-1,-1,-1,-1,-1,-1,-1,-1,-1,-1,-1,-1,-1,-1,-1,-1,-1,-1,-1],"split_conditions":[-7.629142E-1,1E0,3E0,1E0,1E0,1E0,1E0,1E0,3.655259E3,1E0,-9.44101E-1,-4.0054056E-1,1E0,1.430199E-1,1.3285264E3,1E0,4.9299263E3,-1.5411938E0,2.8070974E3,2.2825386E3,4.3099402E2,1E0,1E0,1E0,6.381761E2,1E0,1E0,3E0,1E0,3E0,1E0,-1.3256307E0,-8.047539E1,1E0,1.9569798E2,1E0,3.4616586E2,1E0,1.6769525E3,1E0,9.586673E2,1E0,-1.6992735E0,-1.9435784E0,1.0070251E3,-2.8542725E2,1E0,1E0,1.2052134E3,-6.0278847E1,1E0,1E0,1.9496904E2,1E0,2.614304E2,1E0,-3.8166914E-2,1E0,6.8658036E-1,1E0,9.450912E2,-1.3064747E0,1.9523934E-1,3.2335495E2,1E0,1E0,1.5743164E3,1E0,-1.2106637E0,3.3524854E2,2.4315645E1,1E0,9.324688E1,1E0,1E0,1E0,1.8149324E3,7.948851E2,4.1276407E2,6.8658036E-1,1.0548558E3,3.546835E2,1.2323856E0,-8.1211075E1,5.453842E2,2.1706006E3,2.7709448E2,9.495655E2,3.2751822E2,-1.559289E2,1.9353738E2,5.5639087E2,1.5899501E3,9.8371765E1,1.3803392E3,1.0858239E3,3.3777847E2,-1.6966397E2,1.0967646E2,-3.1753928E2,2.8955707E2,-1.5214326E2,1.887561E1,2.389153E1,8.2771515E2,-1.0966852E2,-2.2055241E2,1.7636607E2,-2.355624E1],"split_indices":[1,560,583,320,346,583,486,571,0,352,1,1,188,1,0,555,0,0,0,0,0,143,349,354,0,224,317,583,464,583,36,0,0,214,0,488,0,214,0,214,0,354,0,0,0,0,44,307,0,0,495,307,0,106,0,318,1,318,1,527,0,1,0,0,363,351,0,342,0,0,0,205,0,479,557,488,0,0,0,1,0,0,0,0,0,0,0,0,0,0,0,0,0,0,0,0,0,0,0,0,0,0,0,0,0,0,0,0,0],"split_type":[0,0,0,0,0,0,0,0,0,0,0,0,0,0,0,0,0,0,0,0,0,0,0,0,0,0,0,0,0,0,0,0,0,0,0,0,0,0,0,0,0,0,0,0,0,0,0,0,0,0,0,0,0,0,0,0,0,0,0,0,0,0,0,0,0,0,0,0,0,0,0,0,0,0,0,0,0,0,0,0,0,0,0,0,0,0,0,0,0,0,0,0,0,0,0,0,0,0,0,0,0,0,0,0,0,0,0,0,0],"sum_hessian":[5.461E3,1.192E3,4.269E3,3.37E2,8.55E2,1.207E3,3.062E3,3.32E2,5E0,8.44E2,1.1E1,2.9E1,1.178E3,3.044E3,1.8E1,3.31E2,1E0,8.42E2,2E0,9E0,2E0,6E0,2.3E1,1.177E3,1E0,1.486E3,1.558E3,2.86E2,4.5E1,8.3E1,7.59E2,5E0,1E0,2.2E1,1E0,1.175E3,2E0,1.48E3,6E0,1.548E3,1E1,3.8E1,2.48E2,4.4E1,1E0,5E0,7.8E1,7.55E2,4E0,1E0,4E0,2.1E1,1E0,1.172E3,3E0,1.45E3,3E1,1.508E3,4E1,3.6E1,2E0,3.3E1,2.15E2,3E0,4.1E1,7.6E1,2E0,7.48E2,7E0,3E0,1E0,1.9E1,2E0,1.13E3,4.2E1,1.448E3,2E0,2E1,1E1,1.505E3,3E0,3.5E1,5E0,3.5E1,1E0,3E1,3E0,1.85E2,3E1,3.9E1,2E0,7.5E1,1E0,7.47E2,1E0,4E0,3E0,1.8E1,1E0,1.129E3,1E0,3.8E1,4E0,1.431E3,1.7E1,8.86E2,6.19E2,4E0,1E0],"tree_param":{"num_deleted":"0","num_feature":"584","num_nodes":"109","size_leaf_vector":"1"}},{"base_weights":[1.20972534E2,4.3246343E3,-1.0292709E3,3.016202E3,1.1437531E4,-1.6457263E3,1.5659144E3,2.8590293E3,4.7820283E3,1.0257667E4,3.4202783E3,-3.0832366E3,-9.308134E2,4.0022979E3,3.2829575E1,6.303063E3,1.6299357E3,-8.3141327E2,1.16017E4,-2.1103186E3,-3.291663E3,-6.3420147E1,-1.7244471E3,3.589803E3,1.5671251E3,-2.851858E2,1.0544293E4,5.891706E3,2.6807778E3,1.5283431E3,1.751104E3,1.6179456E3,-2.0270162E3,1.2254805E4,-1.9338689E3,-2.3741887E3,1.3692607E3,-3.3018442E3,1.8982704E2,-1.8858202E2,5.2911304E2,-1.7558356E3,5.904862E2,3.10972E3,1.0874249E3,-7.296129E2,3.7988171E3,1.0595668E3,3.0396292E2,5.4768066E3,2.6642356E3,1.3767646E3,1.3432658E4,2.1519272E3,-6.3537777E1,1.0806206E2,-2.4292366E3,1.288049E4,-1.934282E2,-2.1302368E2,-2.0857812E2,-2.4864734E3,3.8071347E2,2.360106E3,-1.578817E2,-3.311641E3,1.7833365E2,-2.6618985E2,7.4793145E3,-1.3085929E3,-2.3729102E3,2.8232847E3,1.6888602E3,-8.588267E2,9.978937E2,4.0154124E3,9.0774854E2,5.039338E3,1.9887725E3,1.2977443E3,1.7623091E3,1.4586416E3,4.256847E2,2.514904E3,-7.1800786E-1,-2.6508784E3,1.3503282E1,1.3500374E4,-1.1098563E3,2.0646093E0,-2.7153986E1,-2.1960034E3,-4.4237735E2,1.07005165E2,3.7412927E3,-3.0047E3,-3.5710496E3,-3.165128E2,9.6296173E2,7.195547E2,6.959824E1,-1.4110066E3,3.5972668E3,-2.4055796E3,4.2369458E2,2.5056448E3,1.1124128E3,-9.900751E2,4.060152E2,3.6529697E2,6.3058098E1,1.1178258E2,-2.2849543E1,4.250446E2,2.5447727E3,-1.7693642E2,1.3626666E2,2.5070235E2,3.4785473E1,-3.2084415E1,-2.5042458E2,1.2763668E3,4.5453312E1,-1.735529E2,-1.745083E1,-2.0390492E2,2.9949454E2,-5.419499E1,1.3092105E2,4.4101093E2,-1.3105518E2,-2.7181137E2,1.1527896E2,-3.2389194E2,-7.3600492E0,-4.2839497E1,2.4030153E2,-1.3399257E2,3.3147763E2,6.6516534E2,1.27525314E2,-1.0654779E2,-2.3488582E2,2.0902681E2,1.2911176E3,-9.833227E1,3.714491E2],"categories":[],"categories_nodes":[],"categories_segments":[],"categories_sizes":[],"default_left":[0,0,0,0,0,0,0,0,0,0,0,0,0,0,0,0,0,0,0,0,0,0,0,0,0,0,0,0,0,0,0,0,0,0,0,0,0,0,0,0,0,0,0,0,0,0,0,0,0,0,0,0,0,0,0,0,0,0,0,0,0,0,0,0,0,0,0,0,0,0,0,0,0,0,0,0,0,0,0,0,0,0,0,0,0,0,0,0,0,0,0,0,0,0,0,0,0,0,0,0,0,0,0,0,0,0,0,0,0,0,0,0,0,0,0,0,0,0,0,0,0,0,0,0,0,0,0,0,0,0,0,0,0,0,0,0,0,0,0,0,0,0,0,0,0,0,0],"id":7,"left_children":[1,3,5,7,9,11,13,15,-1,17,-1,19,21,23,25,27,29,31,33,35,37,39,41,43,-1,45,47,49,-1,51,-1,53,55,57,59,61,63,65,-1,67,-1,69,-1,71,-1,73,75,-1,-1,77,-1,79,81,83,-1,-1,85,87,-1,-1,89,91,-1,93,-1,95,-1,97,99,101,103,105,-1,107,-1,109,111,113,-1,115,-1,-1,-1,117,-1,119,-1,121,123,-1,-1,125,-1,127,129,131,133,135,-1,-1,-1,137,139,141,-1,143,-1,145,-1,-1,-1,-1,-1,-1,-1,-1,-1,-1,-1,-1,-1,-1,-1,-1,-1,-1,-1,-1,-1,-1,-1,-1,-1,-1,-1,-1,-1,-1,-1,-1,-1,-1,-1,-1,-1,-1,-1],"loss_changes":[2.646731E10,1.0875703E10,6.8811643E9,7.5416474E9,4.9248195E9,3.564464E9,3.08499E9,4.191312E9,0E0,2.6573394E9,0E0,2.19904E8,1.5989135E9,1.6395361E9,1.7075233E9,2.1702154E9,1.2734314E9,6.80577E7,1.4441615E9,1.9839834E8,6.594765E7,8.292767E8,3.384914E8,1.1969096E9,0E0,9.057978E8,5.253325E7,2.2236221E9,0E0,1.28744E9,0E0,1.2968754E7,2.5309704E7,1.4162555E9,5.731872E6,1.6563853E8,5.780011E7,6.2040064E7,0E0,6.5320954E8,0E0,3.2772045E8,0E0,1.2303068E9,0E0,7.0463E8,2.3383616E7,0E0,0E0,1.645886E9,0E0,9.949426E8,6.395584E7,5.53311E6,0E0,0E0,8.80392E6,1.2874875E9,0E0,0E0,1.00647875E5,1.1455962E8,0E0,3.9647016E7,0E0,5.3692416E7,0E0,6.038317E8,2.5660992E7,3.6486093E8,1.3969306E8,8.316695E8,0E0,3.232745E8,0E0,7.82976E5,2.962501E6,1.5941755E9,0E0,5.185348E8,0E0,0E0,0E0,1.297032E6,0E0,1.93556E6,0E0,1.2166369E9,5.245705E6,0E0,0E0,8.27463E7,0E0,8.443743E6,6.2461416E7,3.715968E7,4.791347E7,5.164613E8,0E0,0E0,0E0,2.8561126E8,1.0310214E8,1.1983616E8,0E0,5.577769E8,0E0,2.3824128E8,0E0,0E0,0E0,0E0,0E0,0E0,0E0,0E0,0E0,0E0,0E0,0E0,0E0,0E0,0E0,0E0,0E0,0E0,0E0,0E0,0E0,0E0,0E0,0E0,0E0,0E0,0E0,0E0,0E0,0E0,0E0,0E0,0E0,0E0,0E0,0E0,0E0,0E0,0E0],"parents":[2147483647,0,0,1,1,2,2,3,3,4,4,5,5,6,6,7,7,9,9,11,11,12,12,13,13,14,14,15,15,16,16,17,17,18,18,19,19,20,20,21,21,22,22,23,23,25,25,26,26,27,27,29,29,31,31,32,32,33,33,34,34,35,35,36,36,37,37,39,39,41,41,43,43,45,45,46,46,49,49,51,51,52,52,53,53,56,56,57,57,60,60,61,61,63,63,65,65,67,67,68,68,69,69,70,70,71,71,73,73,75,75,76,76,77,77,79,79,83,83,85,85,87,87,88,88,91,91,93,93,94,94,95,95,96,96,97,97,101,101,102,102,103,103,105,105,107,107],"right_children":[2,4,6,8,10,12,14,16,-1,18,-1,20,22,24,26,28,30,32,34,36,38,40,42,44,-1,46,48,50,-1,52,-1,54,56,58,60,62,64,66,-1,68,-1,70,-1,72,-1,74,76,-1,-1,78,-1,80,82,84,-1,-1,86,88,-1,-1,90,92,-1,94,-1,96,-1,98,100,102,104,106,-1,108,-1,110,112,114,-1,116,-1,-1,-1,118,-1,120,-1,122,124,-1,-1,126,-1,128,130,132,134,136,-1,-1,-1,138,140,142,-1,144,-1,146,-1,-1,-1,-1,-1,-1,-1,-1,-1,-1,-1,-1,-1,-1,-1,-1,-1,-1,-1,-1,-1,-1,-1,-1,-1,-1,-1,-1,-1,-1,-1,-1,-1,-1,-1,-1,-1,-1,-1],"split_conditions":[-7.629142E-1,1E0,1E0,1E0,1E0,3E0,-3.8166914E-2,-1.1819218E0,4.7820283E3,3E0,3.4202783E3,1.430199E-1,1.430199E-1,1E0,1E0,1E0,1E0,2E0,1E0,1E0,1E0,1E0,1E0,1E0,1.5671251E3,1E0,1.048954E0,1E0,2.6807778E3,1E0,1.751104E3,1E0,-2.0441747E0,1E0,-5.451483E-1,1E0,1E0,1E0,1.8982704E2,1E0,5.2911304E2,6.8658036E-1,5.904862E2,1E0,1.0874249E3,1E0,6.8658036E-1,1.0595668E3,3.0396292E2,1E0,2.6642356E3,1E0,-9.44101E-1,1E0,-6.3537777E1,1.0806206E2,-9.44101E-1,1E0,-1.934282E2,-2.1302368E2,-3.5099047E-3,1E0,3.8071347E2,-1.7880782E-2,-1.578817E2,1.2301408E0,1.7833365E2,1E0,6.144378E-1,1E0,1E0,1E0,1.6888602E3,1E0,9.978937E2,1E0,1.2323856E0,1E0,1.9887725E3,3E0,1.7623091E3,1.4586416E3,4.256847E2,1E0,-7.1800786E-1,-1.8500351E0,1.3503282E1,1E0,-1.1252878E0,2.0646093E0,-2.7153986E1,1E0,-4.4237735E2,-3.8166914E-2,1E0,1E0,1E0,1E0,9.6296173E2,7.195547E2,6.959824E1,1E0,-7.400174E-1,-6.261282E-1,4.2369458E2,1E0,1.1124128E3,1E0,4.060152E2,3.6529697E2,6.3058098E1,1.1178258E2,-2.2849543E1,4.250446E2,2.5447727E3,-1.7693642E2,1.3626666E2,2.5070235E2,3.4785473E1,-3.2084415E1,-2.5042458E2,1.2763668E3,4.5453312E1,-1.735529E2,-1.745083E1,-2.0390492E2,2.9949454E2,-5.419499E1,1.3092105E2,4.4101093E2,-1.3105518E2,-2.7181137E2,1.1527896E2,-3.2389194E2,-7.3600492E0,-4.2839497E1,2.4030153E2,-1.3399257E2,3.3147763E2,6.6516534E2,1.27525314E2,-1.0654779E2,-2.3488582E2,2.0902681E2,1.2911176E3,-9.833227E1,3.714491E2],"split_indices":[1,559,559,571,320,583,1,0,0,583,0,1,1,224,317,352,204,583,378,557,349,349,317,486,0,214,1,330,0,346,0,378,0,391,0,341,428,485,0,214,0,1,0,317,0,318,1,0,0,346,0,317,1,549,0,0,1,201,0,0,0,513,0,0,0,1,0,486,0,553,431,212,0,488,0,582,0,224,0,583,0,0,0,118,0,1,0,239,1,0,0,42,0,1,542,359,27,307,0,0,0,349,0,0,0,318,0,223,0,0,0,0,0,0,0,0,0,0,0,0,0,0,0,0,0,0,0,0,0,0,0,0,0,0,0,0,0,0,0,0,0,0,0,0,0,0,0],"split_type":[0,0,0,0,0,0,0,0,0,0,0,0,0,0,0,0,0,0,0,0,0,0,0,0,0,0,0,0,0,0,0,0,0,0,0,0,0,0,0,0,0,0,0,0,0,0,0,0,0,0,0,0,0,0,0,0,0,0,0,0,0,0,0,0,0,0,0,0,0,0,0,0,0,0,0,0,0,0,0,0,0,0,0,0,0,0,0,0,0,0,0,0,0,0,0,0,0,0,0,0,0,0,0,0,0,0,0,0,0,0,0,0,0,0,0,0,0,0,0,0,0,0,0,0,0,0,0,0,0,0,0,0,0,0,0,0,0,0,0,0,0,0,0,0,0,0,0],"sum_hessian":[5.47E3,1.174E3,4.296E3,9.94E2,1.8E2,3.472E3,8.24E2,9.93E2,1E0,1.75E2,5E0,1.151E3,2.321E3,3.17E2,5.07E2,2.59E2,7.34E2,1.9E1,1.56E2,2.07E2,9.44E2,1.11E3,1.211E3,3.1E2,7E0,4.94E2,1.3E1,2.57E2,2E0,7.32E2,2E0,6E0,1.3E1,1.49E2,7E0,1.93E2,1.4E1,9.43E2,1E0,1.089E3,2.1E1,1.208E3,3E0,2.96E2,1.4E1,4.47E2,4.7E1,1E1,3E0,2.55E2,2E0,7.25E2,7E0,5E0,1E0,1E0,1.2E1,1.43E2,6E0,5E0,2E0,1.91E2,2E0,1.1E1,3E0,9.42E2,1E0,1.08E3,9E0,7.04E2,5.04E2,2.93E2,3E0,4.44E2,3E0,4.3E1,4E0,2.51E2,4E0,7.24E2,1E0,4E0,3E0,4E0,1E0,1.1E1,1E0,1.37E2,6E0,1E0,1E0,1.74E2,1.7E1,5E0,6E0,4.43E2,4.99E2,1.077E3,3E0,8E0,1E0,6.91E2,1.3E1,5.03E2,1E0,2.86E2,7E0,4.35E2,9E0,4.2E1,1E0,3E0,1E0,2.5E2,1E0,4.4E1,6.8E2,3E0,1E0,1E0,1E1,1.3E2,7E0,2E0,4E0,1.73E2,1E0,4E0,1E0,5E0,1E0,4.42E2,1E0,4.95E2,4E0,1.024E3,5.3E1,6.82E2,9E0,3E0,1E1,7.4E1,4.29E2,2.84E2,2E0,4.28E2,7E0],"tree_param":{"num_deleted":"0","num_feature":"584","num_nodes":"147","size_leaf_vector":"1"}},{"base_weights":[6.948793E1,-2.5936663E3,8.8686566E2,-2.6438735E3,9.16556E3,4.455089E3,2.0685005E2,-1.1275764E3,-2.869592E3,9.3974927E2,8.349211E1,4.2312734E3,4.0219723E4,1.3306044E2,1.4006932E4,-2.886154E3,-3.1740677E2,-2.8901907E3,6.127601E2,3.994337E3,2.6528303E3,4.638568E3,1.8773901E2,6.1065895E1,1.2186223E3,1.6004481E4,3.9093707E2,-2.96696E3,-8.1636475E1,-2.2918211E1,-2.138074E2,-2.9079792E3,5.162713E2,3.7977507E3,2.5935647E3,1.8780836E1,1.4990315E3,1.8950491E2,1.5026683E3,-2.9971191E3,-4.3710117E1,-1.4241055E2,3.7923813E2,-2.9932607E3,-9.862707E2,4.3462173E3,-1.1213182E3,-3.344731E1,1.1843174E3,-2.7231506E2,-4.7806202E1,1.3095753E2,-1.5890973E3,-3.0051646E3,2.9582767E2,4.582592E2,-1.0956896E3,7.436897E3,2.8174434E3,-1.6104175E3,9.640629E2,-6.93426E1,1.6214193E3,4.1097496E1,-9.636974E1,-1.7551068E2,5.0290314E1,-2.7150476E2,2.838203E2,-4.3645916E1,1.2699343E2,-7.117588E1,-1.4946956E2,8.403899E2,4.6529602E1,2.291198E2,1.4187732E3,-1.5825235E2,1.4717993E2,-1.5300687E1,4.4045624E2],"categories":[],"categories_nodes":[],"categories_segments":[],"categories_sizes":[],"default_left":[0,0,0,0,0,0,0,0,0,0,0,0,0,0,0,0,0,0,0,0,0,0,0,0,0,0,0,0,0,0,0,0,0,0,0,0,0,0,0,0,0,0,0,0,0,0,0,0,0,0,0,0,0,0,0,0,0,0,0,0,0,0,0,0,0,0,0,0,0,0,0,0,0,0,0,0,0,0,0,0,0],"id":8,"left_children":[1,3,5,7,9,11,13,15,17,-1,-1,19,21,23,25,27,29,31,-1,33,-1,-1,-1,35,-1,37,-1,39,-1,41,-1,43,-1,45,-1,47,-1,-1,-1,49,-1,51,-1,53,55,57,59,61,-1,-1,-1,63,65,67,-1,69,71,73,75,77,-1,79,-1,-1,-1,-1,-1,-1,-1,-1,-1,-1,-1,-1,-1,-1,-1,-1,-1,-1,-1],"loss_changes":[1.2105444E10,8.195144E8,1.0322682E10,4.3913728E8,4.3678016E7,5.110737E9,3.6376947E9,2.4321773E8,2.650153E8,0E0,0E0,3.8258125E9,1.511553E9,3.4336238E9,2.276718E8,3.245536E6,7.262137E7,2.0691354E8,0E0,3.0749645E9,0E0,0E0,0E0,2.484811E9,0E0,7.388595E7,0E0,8.98336E5,0E0,5.5360804E7,0E0,1.7927987E8,0E0,1.8227722E9,0E0,2.4269542E9,0E0,0E0,0E0,3.05216E5,0E0,4.2339796E7,0E0,1.0056909E8,9.066496E6,2.8166676E9,4.3382534E8,2.2849503E9,0E0,0E0,0E0,3.6592424E7,1.5364468E7,9.588429E7,0E0,5.863802E6,5.636928E6,2.6077972E9,1.3547185E9,3.8403664E7,0E0,1.7593558E9,0E0,0E0,0E0,0E0,0E0,0E0,0E0,0E0,0E0,0E0,0E0,0E0,0E0,0E0,0E0,0E0,0E0,0E0,0E0],"parents":[2147483647,0,0,1,1,2,2,3,3,4,4,5,5,6,6,7,7,8,8,11,11,12,12,13,13,14,14,15,15,16,16,17,17,19,19,23,23,25,25,27,27,29,29,31,31,33,33,35,35,39,39,41,41,43,43,44,44,45,45,46,46,47,47,51,51,52,52,53,53,55,55,56,56,57,57,58,58,59,59,61,61],"right_children":[2,4,6,8,10,12,14,16,18,-1,-1,20,22,24,26,28,30,32,-1,34,-1,-1,-1,36,-1,38,-1,40,-1,42,-1,44,-1,46,-1,48,-1,-1,-1,50,-1,52,-1,54,56,58,60,62,-1,-1,-1,64,66,68,-1,70,72,74,76,78,-1,80,-1,-1,-1,-1,-1,-1,-1,-1,-1,-1,-1,-1,-1,-1,-1,-1,-1,-1,-1],"split_conditions":[3E0,1E0,-1.0310277E0,2E0,1E0,1E0,1E0,1E0,1E0,9.3974927E2,8.349211E1,1E0,-1.6130482E0,1E0,1.0050383E0,1E0,1E0,1E0,6.127601E2,1E0,2.6528303E3,4.638568E3,1.8773901E2,1E0,1.2186223E3,1E0,3.9093707E2,1E0,-8.1636475E1,1E0,-2.138074E2,1E0,5.162713E2,1E0,2.5935647E3,1E0,1.4990315E3,1.8950491E2,1.5026683E3,1E0,-4.3710117E1,1E0,3.7923813E2,1E0,-5.682854E-1,1E0,1E0,1E0,1.1843174E3,-2.7231506E2,-4.7806202E1,4.1324556E-1,7.6441234E-1,1E0,2.9582767E2,1E0,8.430785E-1,1E0,1E0,1E0,9.640629E2,1E0,1.6214193E3,4.1097496E1,-9.636974E1,-1.7551068E2,5.0290314E1,-2.7150476E2,2.838203E2,-4.3645916E1,1.2699343E2,-7.117588E1,-1.4946956E2,8.403899E2,4.6529602E1,2.291198E2,1.4187732E3,-1.5825235E2,1.4717993E2,-1.5300687E1,4.4045624E2],"split_indices":[583,354,0,583,580,571,317,563,188,0,0,224,0,486,0,557,409,527,0,330,0,0,0,224,0,567,0,412,0,473,0,106,0,555,0,212,0,0,0,378,0,555,0,140,0,560,464,318,0,0,0,0,0,479,0,557,0,557,346,528,0,214,0,0,0,0,0,0,0,0,0,0,0,0,0,0,0,0,0,0,0],"split_type":[0,0,0,0,0,0,0,0,0,0,0,0,0,0,0,0,0,0,0,0,0,0,0,0,0,0,0,0,0,0,0,0,0,0,0,0,0,0,0,0,0,0,0,0,0,0,0,0,0,0,0,0,0,0,0,0,0,0,0,0,0,0,0,0,0,0,0,0,0,0,0,0,0,0,0,0,0,0,0,0,0],"sum_hessian":[5.557E3,1.304E3,4.253E3,1.3E3,4E0,6.79E2,3.574E3,1.7E2,1.13E3,3E0,1E0,6.77E2,2E0,3.557E3,1.7E1,5.2E1,1.18E2,1.129E3,1E0,6.73E2,4E0,1E0,1E0,3.54E3,1.7E1,1.3E1,4E0,4.9E1,3E0,1.05E2,1.3E1,1.128E3,1E0,6.7E2,3E0,3.533E3,7E0,1E0,1.2E1,4.8E1,1E0,1.04E2,1E0,1.079E3,4.9E1,6.03E2,6.7E1,3.521E3,1.2E1,4.7E1,1E0,8.9E1,1.5E1,1.078E3,1E0,3E0,4.6E1,1.97E2,4.06E2,6.6E1,1E0,3.516E3,5E0,7.1E1,1.8E1,1.3E1,2E0,1.077E3,1E0,2E0,1E0,3.3E1,1.3E1,1.54E2,4.3E1,4E2,6E0,6.4E1,2E0,3.448E3,6.8E1],"tree_param":{"num_deleted":"0","num_feature":"584","num_nodes":"81","size_leaf_vector":"1"}},{"base_weights":[8.499623E1,-2.393374E3,8.579158E2,-2.4411772E3,8.6817705E3,7.9557383E3,4.9630054E2,-1.1963674E3,-2.6318284E3,8.890028E2,8.098735E1,7.245605E3,4.4994106E3,-9.3736694E1,2.5670356E3,-5.943394E2,-2.303732E2,-2.6519417E3,5.9437726E2,6.7008477E3,2.7529019E3,6.314673E2,-9.099639E2,8.608579E3,1.8187949E3,-6.98879E2,3.6786096E2,-2.7290713E3,-7.8148145E2,5.229599E3,1.2620283E4,5.6119476E2,1.3264803E3,-9.811147E2,4.8514727E3,9.859564E3,-2.565532E2,1.6087328E3,1.1110808E3,-2.0896917E3,-3.7154132E2,-2.7589824E3,1.9348882E3,1.2318364E2,-8.8777716E2,6.435515E3,-5.0539807E2,1.3237134E4,-3.060358E2,9.019195E2,-2.4024778E3,-1.0229294E3,5.857346E3,4.5549765E2,3.8581818E1,4.0133347E3,1.3640129E4,1.4400492E3,1.2970559E4,-2.1635742E3,-1.3868278E1,-4.8610226E2,1.6231346E3,-2.7713013E3,3.1038696E2,2.5029036E2,-3.012295E2,-9.9881714E2,-1.1038287E2,6.8178037E3,-2.2031581E2,-1.0742572E3,4.796855E2,1.4036333E4,-3.7392676E2,8.520888E2,1.6729928E3,-2.4803247E3,1.8260115E2,-8.9108124E2,-3.1065508E3,7.505492E3,4.391797E1,6.571573E3,5.82686E2,1.4065742E4,-2.4192363E2,1.273654E3,1.1284462E3,1.366614E3,3.8155234E2,-2.0146553E2,-1.7640308E1,-2.104748E1,-1.3591559E2,2.6743734E1,1.9233444E2,-2.5073564E2,2.2530779E2,-6.2406273E1,2.6198732E1,-9.229147E1,1.1485255E0,1.234595E2,-9.5582275E1,6.4990485E2,-2.0475948E2,-1.6018834E2,2.001195E2,1.3173107E3,-1.9130971E2,-1.6909114E2,1.2415993E2,7.2818954E1,1.4446953E3,-2.021643E2,-3.210976E2,-5.7825806E1,-1.8518369E2,-3.168408E2,-1.1879006E2,7.847855E2,2.0108818E2,3.1362246E1,-2.6032091E1,6.442312E2,-1.5472366E2,-6.1574078E1,6.636302E2,1.304013E3,-2.1290317E2,9.338902E1,7.502291E2],"categories":[],"categories_nodes":[],"categories_segments":[],"categories_sizes":[],"default_left":[0,0,0,0,0,0,0,0,0,0,0,0,0,0,0,0,0,0,0,0,0,0,0,0,0,0,0,0,0,0,0,0,0,0,0,0,0,0,0,0,0,0,0,0,0,0,0,0,0,0,0,0,0,0,0,0,0,0,0,0,0,0,0,0,0,0,0,0,0,0,0,0,0,0,0,0,0,0,0,0,0,0,0,0,0,0,0,0,0,0,0,0,0,0,0,0,0,0,0,0,0,0,0,0,0,0,0,0,0,0,0,0,0,0,0,0,0,0,0,0,0,0,0,0,0,0,0,0,0,0,0,0,0],"id":9,"left_children":[1,3,5,7,9,11,13,15,17,-1,-1,19,-1,21,23,25,-1,27,-1,29,-1,31,33,35,37,39,-1,41,43,45,47,49,-1,51,53,55,-1,57,-1,59,61,63,65,-1,67,69,71,73,-1,75,77,79,81,-1,-1,83,85,87,89,91,-1,93,95,97,-1,-1,99,101,103,105,-1,107,-1,109,111,113,-1,115,-1,117,119,121,123,125,127,129,-1,131,-1,-1,-1,-1,-1,-1,-1,-1,-1,-1,-1,-1,-1,-1,-1,-1,-1,-1,-1,-1,-1,-1,-1,-1,-1,-1,-1,-1,-1,-1,-1,-1,-1,-1,-1,-1,-1,-1,-1,-1,-1,-1,-1,-1,-1],"loss_changes":[1.042678E10,7.274542E8,1.0641244E10,2.9984307E8,3.804595E7,5.2757453E9,4.826639E9,1.4058504E8,2.425216E8,0E0,0E0,2.133164E9,0E0,1.8219302E9,3.9286472E9,6.6394588E7,0E0,1.5673037E8,0E0,1.5923405E9,0E0,1.5993249E9,6.030917E8,1.4324091E9,1.6894326E9,5.443993E7,0E0,1.6008858E8,1.3171372E7,1.1268966E9,4.6557235E8,1.6442401E9,0E0,4.2145114E8,1.2337056E7,1.8133586E9,0E0,1.4364445E9,0E0,2.617736E6,2.4883964E7,1.0055526E8,1.6816518E7,0E0,3.748084E6,4.8845824E8,1.11025544E8,4.130084E8,0E0,1.2532891E9,6.802029E7,3.8593408E8,8.555805E7,0E0,0E0,3.1705485E8,4.3701453E8,1.3715205E9,8.385293E7,2.36116E6,0E0,2.460485E7,2.813722E6,9.616998E7,0E0,0E0,1.3336788E6,1.106284E6,1.4196947E7,5.0600448E8,0E0,7.539668E7,0E0,4.019077E8,1.5739789E7,9.254016E8,0E0,2.6209984E7,0E0,3.8677126E8,5.2815296E7,5.819648E6,6.075664E5,1.2674432E8,1.6495875E8,4.2329088E8,0E0,1.234353E9,0E0,0E0,0E0,0E0,0E0,0E0,0E0,0E0,0E0,0E0,0E0,0E0,0E0,0E0,0E0,0E0,0E0,0E0,0E0,0E0,0E0,0E0,0E0,0E0,0E0,0E0,0E0,0E0,0E0,0E0,0E0,0E0,0E0,0E0,0E0,0E0,0E0,0E0,0E0,0E0,0E0,0E0,0E0,0E0,0E0],"parents":[2147483647,0,0,1,1,2,2,3,3,4,4,5,5,6,6,7,7,8,8,11,11,13,13,14,14,15,15,17,17,19,19,21,21,22,22,23,23,24,24,25,25,27,27,28,28,29,29,30,30,31,31,33,33,34,34,35,35,37,37,39,39,40,40,41,41,42,42,44,44,45,45,46,46,47,47,49,49,50,50,51,51,52,52,55,55,56,56,57,57,58,58,59,59,61,61,62,62,63,63,66,66,67,67,68,68,69,69,71,71,73,73,74,74,75,75,77,77,79,79,80,80,81,81,82,82,83,83,84,84,85,85,87,87],"right_children":[2,4,6,8,10,12,14,16,18,-1,-1,20,-1,22,24,26,-1,28,-1,30,-1,32,34,36,38,40,-1,42,44,46,48,50,-1,52,54,56,-1,58,-1,60,62,64,66,-1,68,70,72,74,-1,76,78,80,82,-1,-1,84,86,88,90,92,-1,94,96,98,-1,-1,100,102,104,106,-1,108,-1,110,112,114,-1,116,-1,118,120,122,124,126,128,130,-1,132,-1,-1,-1,-1,-1,-1,-1,-1,-1,-1,-1,-1,-1,-1,-1,-1,-1,-1,-1,-1,-1,-1,-1,-1,-1,-1,-1,-1,-1,-1,-1,-1,-1,-1,-1,-1,-1,-1,-1,-1,-1,-1,-1,-1,-1],"split_conditions":[3E0,1E0,-1.5023924E0,2E0,1E0,1E0,1E0,1E0,1E0,8.890028E2,8.098735E1,1E0,4.4994106E3,-1.6158956E-1,-9.232461E-1,1E0,-2.303732E2,1E0,5.9437726E2,1E0,2.7529019E3,1E0,1E0,1E0,1E0,1E0,3.6786096E2,1E0,-7.400174E-1,1E0,1E0,1E0,1.3264803E3,1E0,1.1981685E0,-1.1819218E0,-2.565532E2,1E0,1.1110808E3,1E0,1E0,1E0,1E0,1.2318364E2,1E0,1E0,1E0,1E0,-3.060358E2,1E0,1E0,1E0,1E0,4.5549765E2,3.8581818E1,-1.282518E0,1E0,1E0,8.430785E-1,1E0,-1.3868278E1,6.144378E-1,3.960273E-2,1E0,3.1038696E2,2.5029036E2,-8.973517E-2,1E0,1.9523934E-1,1E0,-2.2031581E2,1E0,4.796855E2,1E0,1E0,1E0,1.6729928E3,1E0,1.8260115E2,1E0,1E0,1E0,7.006631E-1,1E0,1E0,1E0,-2.4192363E2,1E0,1.1284462E3,1.366614E3,3.8155234E2,-2.0146553E2,-1.7640308E1,-2.104748E1,-1.3591559E2,2.6743734E1,1.9233444E2,-2.5073564E2,2.2530779E2,-6.2406273E1,2.6198732E1,-9.229147E1,1.1485255E0,1.234595E2,-9.5582275E1,6.4990485E2,-2.0475948E2,-1.6018834E2,2.001195E2,1.3173107E3,-1.9130971E2,-1.6909114E2,1.2415993E2,7.2818954E1,1.4446953E3,-2.021643E2,-3.210976E2,-5.7825806E1,-1.8518369E2,-3.168408E2,-1.1879006E2,7.847855E2,2.0108818E2,3.1362246E1,-2.6032091E1,6.442312E2,-1.5472366E2,-6.1574078E1,6.636302E2,1.304013E3,-2.1290317E2,9.338902E1,7.502291E2],"split_indices":[583,354,0,583,580,442,559,409,188,0,0,224,0,0,0,473,0,106,0,559,0,434,349,412,486,563,0,558,0,580,141,555,0,558,0,0,0,317,0,490,117,37,567,0,557,409,209,568,0,204,363,564,568,0,0,0,70,212,0,268,0,0,0,485,0,0,0,575,0,143,0,474,0,201,51,317,0,564,0,580,557,129,0,146,486,233,0,488,0,0,0,0,0,0,0,0,0,0,0,0,0,0,0,0,0,0,0,0,0,0,0,0,0,0,0,0,0,0,0,0,0,0,0,0,0,0,0,0,0,0,0,0,0],"split_type":[0,0,0,0,0,0,0,0,0,0,0,0,0,0,0,0,0,0,0,0,0,0,0,0,0,0,0,0,0,0,0,0,0,0,0,0,0,0,0,0,0,0,0,0,0,0,0,0,0,0,0,0,0,0,0,0,0,0,0,0,0,0,0,0,0,0,0,0,0,0,0,0,0,0,0,0,0,0,0,0,0,0,0,0,0,0,0,0,0,0,0,0,0,0,0,0,0,0,0,0,0,0,0,0,0,0,0,0,0,0,0,0,0,0,0,0,0,0,0,0,0,0,0,0,0,0,0,0,0,0,0,0,0],"sum_hessian":[5.439E3,1.292E3,4.147E3,1.288E3,4E0,1.99E2,3.948E3,1.73E2,1.115E3,3E0,1E0,1.98E2,1E0,3.074E3,8.74E2,1.22E2,5.1E1,1.114E3,1E0,1.96E2,2E0,1.628E3,1.446E3,9.4E1,7.8E2,1.21E2,1E0,1.069E3,4.5E1,1.6E2,3.6E1,1.622E3,6E0,1.43E3,1.6E1,8.5E1,9E0,7.67E2,1.3E1,2.1E1,1E2,1.063E3,6E0,1E0,4.4E1,1.32E2,2.8E1,3.5E1,1E0,1.456E3,1.66E2,1.423E3,7E0,1.5E1,1E0,3.5E1,5E1,7.58E2,9E0,2E1,1E0,9.6E1,4E0,1.062E3,1E0,4E0,2E0,3.8E1,6E0,1.27E2,5E0,2.7E1,1E0,3.3E1,2E0,1.454E3,2E0,1.64E2,2E0,1.341E3,8.2E1,5E0,2E0,1.9E1,1.6E1,4.9E1,1E0,7.49E2,9E0,6E0,3E0,1.9E1,1E0,7.9E1,1.7E1,2E0,2E0,1.06E3,2E0,1E0,1E0,3.7E1,1E0,2E0,4E0,1.22E2,5E0,2.3E1,4E0,3.2E1,1E0,1E0,1E0,1.452E3,2E0,1.4E2,2.4E1,1.108E3,2.33E2,6.5E1,1.7E1,3E0,2E0,1E0,1E0,1.8E1,1E0,1.5E1,1E0,4.8E1,1E0,7.27E2,2.2E1],"tree_param":{"num_deleted":"0","num_feature":"584","num_nodes":"133","size_leaf_vector":"1"}},{"base_weights":[1.1862128E2,4.4872256E3,-7.2665985E2,9.349137E3,2.5481963E3,5.460431E2,-1.7165255E3,8.808923E3,4.364428E3,2.3794226E3,2.5335713E3,4.5564554E2,1.1111374E4,-1.7961211E3,2.7600442E3,2.5598381E2,1.0232033E4,5.3762715E3,1.5747917E3,3.6298026E2,8.749796E3,1.7615385E2,1.0294851E3,-1.3621885E3,-2.487008E3,2.0044453E1,2.8064863E3,1.0592948E3,-3.2435156E2,1.5777529E4,7.299018E3,5.9083774E3,-2.4033198E3,2.148855E3,-4.3182578E2,-1.8193599E3,6.619787E2,1.0903896E4,4.151687E2,-1.6890194E3,-7.1079535E2,-2.5098728E3,1.2642778E2,2.9663813E3,1.3251262E3,3.2557373E3,-5.0579028E2,1.6826258E4,1.0817294E3,4.0142563E3,1.0900432E4,-2.839329E3,6.470685E3,4.595959E1,-2.840798E3,2.5677937E3,-1.5730973E3,-8.009119E2,1.3480255E2,-1.571497E3,-3.818386E2,5.8620746E2,8.9373865E2,1.0198927E3,1.7288913E2,-1.7362323E3,2.7464554E2,-2.126374E3,-3.3576614E2,-2.542833E3,-3.551329E2,3.0047852E3,4.5151028E1,1.5355459E1,1.2969208E2,3.8672761E3,-1.4076805E2,9.885509E2,-1.3943253E3,1.8373123E4,4.1796187E3,-7.166092E1,1.9366264E2,5.314495E3,-1.3529089E3,1.2120541E4,1.3994856E3,-2.8702658E2,-1.1546484E0,7.1444214E3,-7.2736523E2,-2.7695053E2,-2.842081E1,1.4428654E3,4.0784446E3,3.8001355E2,-1.9296885E3,-9.2623944E2,3.3685596E2,-1.7294949E3,5.185367E2,7.031337E2,-3.1863052E2,-1.7591548E3,4.5356784E2,-2.175914E3,2.7389258E2,-1.8897656E2,-2.6706424E2,-2.5746353E3,-6.983408E2,2.837514E2,-9.8630817E2,2.794552E2,9.905078E1,4.870106E2,2.3573013E1,1.3662099E2,-9.73539E1,-1.6592282E2,1.3332224E2,1.9198383E3,8.769284E2,1.1272723E2,9.15644E2,1.6591711E2,7.441755E2,-1.461067E2,8.919214E1,1.1619357E3,-1.5584503E2,4.601701E2,-7.262042E1,7.035302E2,-9.695968E1,3.706539E1,-1.8037627E2,1.1403692E2,7.202102E2,3.2497803E2,1.0327484E3,-2.5778292E1,1.0711488E2,-2.0227432E2,-1.0185923E2,2.0084644E2,-1.0008661E2,-1.6074896E2,2.9447488E2,1.6814293E2,-1.3200389E2,5.5460377E1,5.0582507E2,-1.4545973E2,-2.6669232E2,-2.0397594E2,-4.302006E1,1.2031841E2,-8.7391304E1,-6.7046747E0,-2.993757E2,-2.3240555E2,1.3862067E2,3.167491E1,-1.37372E2,3.0261892E1,-5.600244E0,-3.485995E0,-1.1211224E2],"categories":[],"categories_nodes":[],"categories_segments":[],"categories_sizes":[],"default_left":[0,0,0,0,0,0,0,0,0,0,0,0,0,0,0,0,0,0,0,0,0,0,0,0,0,0,0,0,0,0,0,0,0,0,0,0,0,0,0,0,0,0,0,0,0,0,0,0,0,0,0,0,0,0,0,0,0,0,0,0,0,0,0,0,0,0,0,0,0,0,0,0,0,0,0,0,0,0,0,0,0,0,0,0,0,0,0,0,0,0,0,0,0,0,0,0,0,0,0,0,0,0,0,0,0,0,0,0,0,0,0,0,0,0,0,0,0,0,0,0,0,0,0,0,0,0,0,0,0,0,0,0,0,0,0,0,0,0,0,0,0,0,0,0,0,0,0,0,0,0,0,0,0,0,0,0,0,0,0,0,0,0,0,0,0,0,0,0,0],"id":10,"left_children":[1,3,5,7,9,11,13,15,-1,17,-1,19,21,23,25,27,29,31,33,35,37,-1,-1,39,41,-1,43,45,-1,47,49,51,53,55,57,59,61,63,-1,65,67,69,-1,71,73,75,77,79,81,83,85,87,89,-1,91,93,95,97,-1,99,-1,101,-1,-1,-1,103,-1,105,107,109,111,113,-1,-1,-1,115,-1,117,119,121,123,-1,-1,125,127,129,131,-1,-1,133,135,-1,-1,137,139,141,143,145,-1,147,149,151,-1,153,-1,155,157,159,-1,161,163,165,167,-1,-1,-1,-1,-1,-1,-1,-1,-1,-1,-1,-1,-1,-1,-1,-1,-1,-1,-1,-1,-1,-1,-1,-1,-1,-1,-1,-1,-1,-1,-1,-1,-1,-1,-1,-1,-1,-1,-1,-1,-1,-1,-1,-1,-1,-1,-1,-1,-1,-1,-1,-1,-1,-1,-1,-1],"loss_changes":[2.027206E10,8.342704E9,5.7969797E9,4.495571E9,2.6271196E9,1.9133825E9,9.320571E8,3.0620283E9,0E0,1.5190876E9,0E0,1.5300206E9,6.137856E6,7.559035E8,4.164416E6,1.2545639E8,3.2828764E9,5.8310835E8,5.8358144E8,1.2937363E9,9.541427E7,0E0,0E0,3.3120128E8,9.41696E7,0E0,2.788544E6,1.1674038E8,0E0,1.0886308E9,1.6277745E9,6.56534E8,1.565408E7,6.2087386E8,8.358866E7,1.3020762E8,1.2117115E9,6.444928E6,0E0,2.4381363E8,2.7834266E8,6.73623E7,0E0,6.69632E5,5.75485E5,5.336731E7,3.0640796E7,1.1766292E9,1.7496344E7,5.6569715E8,7.5431834E8,8.811552E6,5.875067E8,0E0,3.422608E6,5.897979E8,3.0024656E7,6.2165304E7,0E0,7.444461E7,0E0,8.397009E8,0E0,0E0,0E0,1.781696E8,0E0,1.4275744E7,1.6072917E8,5.265101E7,7.4163535E6,4.12736E5,0E0,0E0,0E0,6.951842E7,0E0,1.3150052E7,2.3549818E7,1.1160166E9,1.4994715E8,0E0,0E0,6.2572774E8,1.3997462E7,7.012045E8,9.019414E7,0E0,0E0,6.19604E8,1.91086E7,0E0,0E0,2.1723677E8,4.358692E8,5.0029285E6,3.781328E6,6.129773E7,0E0,6.972141E7,5.1033076E7,7.126945E8,0E0,1.6785562E8,0E0,1.442048E7,7.8902135E6,1.4280738E8,0E0,3.760435E7,1.7600096E7,2.2400275E5,2.112998E6,0E0,0E0,0E0,0E0,0E0,0E0,0E0,0E0,0E0,0E0,0E0,0E0,0E0,0E0,0E0,0E0,0E0,0E0,0E0,0E0,0E0,0E0,0E0,0E0,0E0,0E0,0E0,0E0,0E0,0E0,0E0,0E0,0E0,0E0,0E0,0E0,0E0,0E0,0E0,0E0,0E0,0E0,0E0,0E0,0E0,0E0,0E0,0E0,0E0,0E0,0E0,0E0,0E0,0E0,0E0,0E0],"parents":[2147483647,0,0,1,1,2,2,3,3,4,4,5,5,6,6,7,7,9,9,11,11,12,12,13,13,14,14,15,15,16,16,17,17,18,18,19,19,20,20,23,23,24,24,26,26,27,27,29,29,30,30,31,31,32,32,33,33,34,34,35,35,36,36,37,37,39,39,40,40,41,41,43,43,44,44,45,45,46,46,47,47,48,48,49,49,50,50,51,51,52,52,54,54,55,55,56,56,57,57,59,59,61,61,65,65,67,67,68,68,69,69,70,70,71,71,75,75,77,77,78,78,79,79,80,80,83,83,84,84,85,85,86,86,89,89,90,90,93,93,94,94,95,95,96,96,97,97,99,99,100,100,101,101,103,103,105,105,106,106,107,107,109,109,110,110,111,111,112,112],"right_children":[2,4,6,8,10,12,14,16,-1,18,-1,20,22,24,26,28,30,32,34,36,38,-1,-1,40,42,-1,44,46,-1,48,50,52,54,56,58,60,62,64,-1,66,68,70,-1,72,74,76,78,80,82,84,86,88,90,-1,92,94,96,98,-1,100,-1,102,-1,-1,-1,104,-1,106,108,110,112,114,-1,-1,-1,116,-1,118,120,122,124,-1,-1,126,128,130,132,-1,-1,134,136,-1,-1,138,140,142,144,146,-1,148,150,152,-1,154,-1,156,158,160,-1,162,164,166,168,-1,-1,-1,-1,-1,-1,-1,-1,-1,-1,-1,-1,-1,-1,-1,-1,-1,-1,-1,-1,-1,-1,-1,-1,-1,-1,-1,-1,-1,-1,-1,-1,-1,-1,-1,-1,-1,-1,-1,-1,-1,-1,-1,-1,-1,-1,-1,-1,-1,-1,-1,-1,-1,-1,-1,-1],"split_conditions":[-9.44101E-1,1E0,1.430199E-1,1E0,1E0,1E0,1E0,3E0,4.364428E3,-1.4118559E0,2.5335713E3,1E0,-1.5411938E0,1.048954E0,-1.9435784E0,1E0,-1.282518E0,1E0,-1.6158956E-1,3E0,-4.0054056E-1,1.7615385E2,1.0294851E3,1E0,1E0,2.0044453E1,1.917086E0,-1.4876615E0,-3.2435156E2,1E0,1E0,3E0,-1.9004657E0,1E0,1E0,1E0,1E0,1E0,4.151687E2,1E0,3E0,1E0,1.2642778E2,1E0,3.242067E-1,-1.3256307E0,1E0,1E0,1E0,1E0,1E0,1E0,1E0,4.595959E1,-1.4693395E0,1E0,-1.4876615E0,1E0,1.3480255E2,1E0,-3.818386E2,1E0,8.9373865E2,1.0198927E3,1.7288913E2,1E0,2.7464554E2,1E0,1E0,1E0,1.4113276E0,1E0,4.5151028E1,1.5355459E1,1.2969208E2,1E0,-1.4076805E2,1E0,1E0,-1.3064747E0,1E0,-7.166092E1,1.9366264E2,1E0,1E0,1E0,-1.4876615E0,-2.8702658E2,-1.1546484E0,1E0,-1.4876615E0,-2.7695053E2,-2.842081E1,1E0,-2.1907307E-1,1E0,-7.939082E-1,-1.4876615E0,3.3685596E2,1E0,-3.8166914E-2,1E0,-3.1863052E2,1E0,4.5356784E2,1E0,-5.682854E-1,1E0,-2.6706424E2,1E0,2.5947717E-1,1E0,-7.400174E-1,2.794552E2,9.905078E1,4.870106E2,2.3573013E1,1.3662099E2,-9.73539E1,-1.6592282E2,1.3332224E2,1.9198383E3,8.769284E2,1.1272723E2,9.15644E2,1.6591711E2,7.441755E2,-1.461067E2,8.919214E1,1.1619357E3,-1.5584503E2,4.601701E2,-7.262042E1,7.035302E2,-9.695968E1,3.706539E1,-1.8037627E2,1.1403692E2,7.202102E2,3.2497803E2,1.0327484E3,-2.5778292E1,1.0711488E2,-2.0227432E2,-1.0185923E2,2.0084644E2,-1.0008661E2,-1.6074896E2,2.9447488E2,1.6814293E2,-1.3200389E2,5.5460377E1,5.0582507E2,-1.4545973E2,-2.6669232E2,-2.0397594E2,-4.302006E1,1.2031841E2,-8.7391304E1,-6.7046747E0,-2.993757E2,-2.3240555E2,1.3862067E2,3.167491E1,-1.37372E2,3.0261892E1,-5.600244E0,-3.485995E0,-1.1211224E2],"split_indices":[1,560,1,442,352,486,214,583,0,0,0,488,0,1,0,521,0,195,0,583,1,0,0,567,223,0,0,1,0,495,567,583,0,135,474,513,212,558,0,488,583,360,0,582,1,0,581,555,567,555,555,100,100,0,0,567,1,297,0,557,0,409,0,0,0,223,0,552,412,340,1,573,0,0,0,416,0,99,557,1,464,0,0,581,363,378,1,0,0,143,1,0,0,307,0,567,0,1,0,140,1,214,0,555,0,553,0,407,0,508,0,564,0,0,0,0,0,0,0,0,0,0,0,0,0,0,0,0,0,0,0,0,0,0,0,0,0,0,0,0,0,0,0,0,0,0,0,0,0,0,0,0,0,0,0,0,0,0,0,0,0,0,0,0,0,0,0,0,0],"split_type":[0,0,0,0,0,0,0,0,0,0,0,0,0,0,0,0,0,0,0,0,0,0,0,0,0,0,0,0,0,0,0,0,0,0,0,0,0,0,0,0,0,0,0,0,0,0,0,0,0,0,0,0,0,0,0,0,0,0,0,0,0,0,0,0,0,0,0,0,0,0,0,0,0,0,0,0,0,0,0,0,0,0,0,0,0,0,0,0,0,0,0,0,0,0,0,0,0,0,0,0,0,0,0,0,0,0,0,0,0,0,0,0,0,0,0,0,0,0,0,0,0,0,0,0,0,0,0,0,0,0,0,0,0,0,0,0,0,0,0,0,0,0,0,0,0,0,0,0,0,0,0,0,0,0,0,0,0,0,0,0,0,0,0,0,0,0,0,0,0],"sum_hessian":[5.486E3,8.88E2,4.598E3,2.51E2,6.37E2,2.012E3,2.586E3,2.5E2,1E0,6.35E2,2E0,1.997E3,1.5E1,2.542E3,4.4E1,3.6E1,2.14E2,1.32E2,5.03E2,1.977E3,2E1,1E0,1.4E1,1.565E3,9.77E2,1E0,4.3E1,3.1E1,5E0,7.1E1,1.43E2,1.24E2,8E0,3.91E2,1.12E2,2.37E2,1.74E3,1.1E1,9E0,1.04E3,5.25E2,9.72E2,5E0,3.7E1,6E0,1.2E1,1.9E1,6.6E1,5E0,7.7E1,6.6E1,7E0,1.17E2,1E0,7E0,3.52E2,3.9E1,9.5E1,1.7E1,2.18E2,1.9E1,1.728E3,1.2E1,1E1,1E0,1.031E3,9E0,1.08E2,4.17E2,9.57E2,1.5E1,3.6E1,1E0,1E0,5E0,1.1E1,1E0,7E0,1.2E1,5.8E1,8E0,2E0,3E0,6.2E1,1.5E1,5.8E1,8E0,6E0,1E0,1.07E2,1E1,6E0,1E0,2.04E2,1.48E2,6E0,3.3E1,9.4E1,1E0,2.03E2,1.5E1,1.682E3,4.6E1,1.029E3,2E0,1.06E2,2E0,3.97E2,2E1,9.4E2,1.7E1,8E0,7E0,3.3E1,3E0,7E0,4E0,6E0,1E0,1.1E1,1E0,4.1E1,1.7E1,7E0,1E0,3E1,3.2E1,1.4E1,1E0,5.5E1,3E0,2E0,6E0,9.9E1,8E0,6E0,4E0,2.01E2,3E0,1.42E2,6E0,4E0,2E0,2.1E1,1.2E1,4E0,9E1,2.02E2,1E0,9E0,6E0,1.655E3,2.7E1,9.24E2,1.05E2,1E2,6E0,1E0,1E0,3.85E2,1.2E1,9.39E2,1E0,8E0,9E0,7E0,1E0,2E0,5E0],"tree_param":{"num_deleted":"0","num_feature":"584","num_nodes":"169","size_leaf_vector":"1"}},{"base_weights":[6.672627E1,2.425281E1,3.0153896E3,-2.0058499E3,6.3581085E2,-2.0506604E3,8.169746E3,6.525228E3,3.623137E2,-9.268702E2,-2.2175017E3,8.325437E2,8.292153E1,5.7604355E3,1.7783904E4,2.8103177E2,1.1636942E3,-3.360987E2,-1.9454124E2,-2.2370303E3,5.813684E2,4.2956777E3,1.0969316E4,3.20682E3,2.8862201E4,-1.432674E2,1.7974702E3,-1.9511759E1,-1.9501992E3,-2.2553333E3,2.4255014E2,5.064497E3,6.1489014E1,1.1956095E4,-3.254576E2,2.9011362E2,6.211518E2,-1.8016272E2,3.2252515E3,-6.404657E2,7.478901E2,5.2771826E3,1.2821398E3,-1.199798E2,2.947307E2,-2.0424514E3,-8.629761E0,-2.318142E3,-8.9667065E2,5.4551694E3,-2.5705923E2,-5.7950275E2,4.44189E2,1.3070417E4,4.1591408E1,-5.1709194E1,2.358789E1,1.2670228E3,-1.37773E2,-3.0892538E2,-1.6764482E3,2.2811375E3,6.169935E1,6.100134E3,-2.3992601E2,1.1167184E3,1.0742796E4,-2.049451E1,2.272678E2,-1.919837E2,-1.4956217E1,-2.0969354E2,3.0236597E2,-3.3674175E1,-1.12935295E2,5.1819183E2,-1.808886E2,-1.0921864E2,1.4590056E2,1.2619336E3,-5.3756325E1,-3.572929E2,4.826892E2,7.976807E0,-5.08626E0,2.2560422E2,-1.10692184E2,-3.4565655E1,3.524411E2,-1.5504875E2,6.290963E2,1.886705E2,1.545421E3,8.500807E-1,1.2261024E3,5.936036E2,-3.6972165E2,8.940372E1,1.2674928E3,1.1011757E3,3.1142697E2],"categories":[],"categories_nodes":[],"categories_segments":[],"categories_sizes":[],"default_left":[0,0,0,0,0,0,0,0,0,0,0,0,0,0,0,0,0,0,0,0,0,0,0,0,0,0,0,0,0,0,0,0,0,0,0,0,0,0,0,0,0,0,0,0,0,0,0,0,0,0,0,0,0,0,0,0,0,0,0,0,0,0,0,0,0,0,0,0,0,0,0,0,0,0,0,0,0,0,0,0,0,0,0,0,0,0,0,0,0,0,0,0,0,0,0,0,0,0,0,0,0],"id":11,"left_children":[1,3,-1,5,7,9,11,13,15,17,19,-1,-1,21,23,25,-1,27,-1,29,-1,31,33,35,37,39,41,43,45,47,-1,49,51,53,55,57,-1,-1,-1,59,61,63,65,67,-1,69,-1,71,73,75,-1,77,-1,79,81,-1,83,85,-1,87,89,91,93,95,-1,97,99,-1,-1,-1,-1,-1,-1,-1,-1,-1,-1,-1,-1,-1,-1,-1,-1,-1,-1,-1,-1,-1,-1,-1,-1,-1,-1,-1,-1,-1,-1,-1,-1,-1,-1],"loss_changes":[7.836451E9,6.84832E9,0E0,6.157737E8,6.8231803E9,2.3456358E8,2.993552E7,1.4138511E9,4.132928E9,1.2108541E8,2.1647462E8,0E0,0E0,1.2714532E9,1.5912056E9,2.592872E9,0E0,5.919631E7,0E0,1.1199488E8,0E0,4.648786E8,4.3133184E8,7.141895E7,1.4350019E9,1.396666E9,1.5662656E9,3.3545694E7,2.854264E6,8.996198E7,0E0,4.0559E8,8.0708696E7,4.6356787E8,4.629235E5,1.4551885E7,0E0,0E0,0E0,6.9380006E8,1.1875348E9,7.7118054E8,1.181029E9,2.9073844E7,0E0,2.349648E6,0E0,8.611891E7,8.78934E6,2.8511514E8,0E0,3.6025108E7,0E0,4.3274138E8,1.493246E8,0E0,3.0922402E4,2.1645772E7,0E0,4.902879E8,2.2075456E8,8.883068E8,5.538806E8,5.751419E8,0E0,1.1858895E9,5.659072E7,0E0,0E0,0E0,0E0,0E0,0E0,0E0,0E0,0E0,0E0,0E0,0E0,0E0,0E0,0E0,0E0,0E0,0E0,0E0,0E0,0E0,0E0,0E0,0E0,0E0,0E0,0E0,0E0,0E0,0E0,0E0,0E0,0E0,0E0],"parents":[2147483647,0,0,1,1,3,3,4,4,5,5,6,6,7,7,8,8,9,9,10,10,13,13,14,14,15,15,17,17,19,19,21,21,22,22,23,23,24,24,25,25,26,26,27,27,28,28,29,29,31,31,32,32,33,33,34,34,35,35,39,39,40,40,41,41,42,42,43,43,45,45,47,47,48,48,49,49,51,51,53,53,54,54,56,56,57,57,59,59,60,60,61,61,62,62,63,63,65,65,66,66],"right_children":[2,4,-1,6,8,10,12,14,16,18,20,-1,-1,22,24,26,-1,28,-1,30,-1,32,34,36,38,40,42,44,46,48,-1,50,52,54,56,58,-1,-1,-1,60,62,64,66,68,-1,70,-1,72,74,76,-1,78,-1,80,82,-1,84,86,-1,88,90,92,94,96,-1,98,100,-1,-1,-1,-1,-1,-1,-1,-1,-1,-1,-1,-1,-1,-1,-1,-1,-1,-1,-1,-1,-1,-1,-1,-1,-1,-1,-1,-1,-1,-1,-1,-1,-1,-1],"split_conditions":[1E0,3E0,3.0153896E3,1E0,-1.5411938E0,2E0,1E0,1E0,1E0,1E0,1E0,8.325437E2,8.292153E1,1E0,1E0,1E0,1.1636942E3,1E0,-1.9454124E2,1E0,5.813684E2,1E0,1E0,1E0,-2.0441747E0,1E0,-8.8013345E-1,1E0,1E0,1E0,2.4255014E2,1E0,1E0,1E0,-1.9435784E0,1E0,6.211518E2,-1.8016272E2,3.2252515E3,1E0,-6.645703E-1,1E0,1E0,1E0,2.947307E2,1E0,-8.629761E0,1E0,1.9523934E-1,1E0,-2.5705923E2,1E0,4.44189E2,1E0,-1.9004657E0,-5.1709194E1,-1.8429823E0,-1.8429823E0,-1.37773E2,1E0,1E0,1E0,1E0,1E0,-2.3992601E2,1E0,1.0455642E0,-2.049451E1,2.272678E2,-1.919837E2,-1.4956217E1,-2.0969354E2,3.0236597E2,-3.3674175E1,-1.12935295E2,5.1819183E2,-1.808886E2,-1.0921864E2,1.4590056E2,1.2619336E3,-5.3756325E1,-3.572929E2,4.826892E2,7.976807E0,-5.08626E0,2.2560422E2,-1.10692184E2,-3.4565655E1,3.524411E2,-1.5504875E2,6.290963E2,1.886705E2,1.545421E3,8.500807E-1,1.2261024E3,5.936036E2,-3.6972165E2,8.940372E1,1.2674928E3,1.1011757E3,3.1142697E2],"split_indices":[320,583,0,354,0,583,580,554,486,409,188,0,0,559,567,559,0,564,0,488,0,580,50,483,0,567,0,42,490,106,0,407,209,580,0,146,0,0,0,580,0,412,317,569,0,407,0,37,0,409,0,474,0,239,0,0,0,0,0,307,42,204,259,391,0,318,0,0,0,0,0,0,0,0,0,0,0,0,0,0,0,0,0,0,0,0,0,0,0,0,0,0,0,